{
    "0": {
        "params": {
            "FCN/~create_layers/linear": {
                "b": [
                    -0.007945971563458443,
                    0.0,
                    -2.3404807507176884e-05,
                    0.02284538373351097,
                    -0.0006493665277957916,
                    0.020394230261445045,
                    -0.002184908604249358,
                    0.007033482193946838,
                    0.005715267267078161,
                    0.003923197742551565,
                    0.0005676018190570176,
                    3.462389486230677e-06,
                    0.006526221986860037,
                    -0.013308756053447723,
                    0.0,
                    0.0012661978835240006
                ],
                "w": [
                    [
                        -0.829544186592102,
                        0.298971027135849,
                        0.2600971758365631,
                        -0.7679912447929382,
                        0.9150741696357727,
                        1.0601505041122437,
                        -0.7589882612228394,
                        0.7363210916519165,
                        0.487121045589447,
                        0.40305301547050476,
                        0.2965203523635864,
                        -0.7278954982757568,
                        0.82845139503479,
                        -0.4462602138519287,
                        -0.3421300947666168,
                        0.6433765888214111
                    ],
                    [
                        0.011307384818792343,
                        -0.6223117709159851,
                        -0.6896427273750305,
                        0.559848427772522,
                        -0.6879651546478271,
                        0.2024628221988678,
                        -0.22036311030387878,
                        -0.1271514892578125,
                        0.6666244864463806,
                        -0.5435800552368164,
                        0.39752131700515747,
                        0.4371156692504883,
                        0.6220242381095886,
                        0.42327478528022766,
                        -0.08209529519081116,
                        0.5082206130027771
                    ],
                    [
                        -0.684374988079071,
                        0.2549775540828705,
                        0.9448915719985962,
                        0.16200704872608185,
                        0.04390349239110947,
                        0.9030082821846008,
                        0.11143191158771515,
                        -0.8093395829200745,
                        0.16428373754024506,
                        0.5082195997238159,
                        -0.22653533518314362,
                        -0.43453606963157654,
                        0.3577102720737457,
                        -0.07611773908138275,
                        0.011680140160024166,
                        -0.328512042760849
                    ],
                    [
                        1.1907711029052734,
                        -0.16582727432250977,
                        -0.3791808784008026,
                        -0.30905359983444214,
                        0.9976205825805664,
                        0.033574171364307404,
                        0.3437926173210144,
                        0.20674027502536774,
                        0.6995353698730469,
                        -0.4083270728588104,
                        -1.1511815786361694,
                        0.8773351907730103,
                        -0.4014643728733063,
                        -0.08013295382261276,
                        -0.11893825978040695,
                        0.21763500571250916
                    ],
                    [
                        0.9151881337165833,
                        -0.8950682282447815,
                        -0.7318996787071228,
                        0.2786610424518585,
                        0.12804043292999268,
                        0.34954071044921875,
                        0.20786921679973602,
                        0.981106162071228,
                        0.3926948606967926,
                        0.37643980979919434,
                        0.19186051189899445,
                        -0.7495535016059875,
                        -0.2131127417087555,
                        0.5910491943359375,
                        -0.4990267753601074,
                        0.6837112903594971
                    ],
                    [
                        0.3084487318992615,
                        -0.8598196506500244,
                        0.004239263478666544,
                        0.2722117602825165,
                        -0.193261981010437,
                        0.10211268812417984,
                        1.2792067527770996,
                        -0.2447945922613144,
                        -0.9416840672492981,
                        -0.2975330948829651,
                        0.6640346646308899,
                        -0.579391360282898,
                        0.057202767580747604,
                        -0.5107547044754028,
                        -0.1523963361978531,
                        0.8530020713806152
                    ]
                ]
            },
            "FCN/~create_layers/linear_1": {
                "b": [
                    0.0013171833707019687,
                    0.0,
                    -0.00043443686445243657,
                    0.0,
                    0.0,
                    0.0,
                    0.0,
                    -0.00012744948617182672,
                    0.000404175603762269,
                    0.011275190860033035,
                    0.0,
                    -0.004152377136051655,
                    0.023149272426962852,
                    0.005953081883490086,
                    0.014201118610799313,
                    0.0
                ],
                "w": [
                    [
                        0.1285819560289383,
                        -0.7013092041015625,
                        -0.15576662123203278,
                        0.13453003764152527,
                        -0.3932296633720398,
                        -0.08975706249475479,
                        0.02535434253513813,
                        -0.037515293806791306,
                        -0.1926964968442917,
                        0.43970608711242676,
                        -0.20883016288280487,
                        -0.22498315572738647,
                        -0.4413333833217621,
                        0.29303857684135437,
                        -0.33120647072792053,
                        -0.12449359148740768
                    ],
                    [
                        -0.27347254753112793,
                        0.05696692690253258,
                        0.12516668438911438,
                        0.6179001927375793,
                        -0.040446579456329346,
                        -0.010628962889313698,
                        0.3157537579536438,
                        0.20452962815761566,
                        0.057255856692790985,
                        -0.1537555754184723,
                        0.38144248723983765,
                        0.3842562735080719,
                        0.0968647375702858,
                        -0.19085003435611725,
                        -0.3318609595298767,
                        -0.544154942035675
                    ],
                    [
                        -0.030561259016394615,
                        -0.31697309017181396,
                        -0.4019269645214081,
                        -0.2571909427642822,
                        -0.6715828776359558,
                        0.06339119374752045,
                        0.1327727884054184,
                        0.4651634991168976,
                        -0.6733347177505493,
                        -0.4739653468132019,
                        0.36498555541038513,
                        0.3658401370048523,
                        0.4601885676383972,
                        0.07419857382774353,
                        -0.5737662315368652,
                        0.15782302618026733
                    ],
                    [
                        -0.5930935144424438,
                        0.4413389265537262,
                        -0.2545607388019562,
                        -0.39054685831069946,
                        0.03307938948273659,
                        -0.02482587657868862,
                        -0.2521917223930359,
                        0.5422495603561401,
                        0.4772171974182129,
                        0.36377954483032227,
                        0.2360624372959137,
                        -0.3297765254974365,
                        0.41951632499694824,
                        0.05377465486526489,
                        0.016859162598848343,
                        -0.7676416635513306
                    ],
                    [
                        -0.13060921430587769,
                        -0.2890986502170563,
                        -0.2228720635175705,
                        -0.1580556184053421,
                        -0.3329601585865021,
                        0.24368712306022644,
                        -0.337803453207016,
                        -0.04774044081568718,
                        0.07861674576997757,
                        -0.06489226967096329,
                        -0.3821379542350769,
                        -0.024634990841150284,
                        0.012223711237311363,
                        0.3963618278503418,
                        -0.21608583629131317,
                        -0.7648254632949829
                    ],
                    [
                        0.20057690143585205,
                        -0.26253342628479004,
                        0.3441658616065979,
                        0.29115405678749084,
                        -0.006527843419462442,
                        -0.2977049946784973,
                        -0.324970006942749,
                        -0.1632785201072693,
                        -0.37151989340782166,
                        -0.05518817529082298,
                        -0.452852338552475,
                        0.6048399806022644,
                        0.7115762233734131,
                        -0.06177651137113571,
                        0.5567295551300049,
                        -0.6656889319419861
                    ],
                    [
                        -0.4079539477825165,
                        0.28451183438301086,
                        -0.2401318997144699,
                        -0.5241743922233582,
                        -0.5249253511428833,
                        0.4480758011341095,
                        0.2151723951101303,
                        0.16644048690795898,
                        -0.04488707333803177,
                        0.42730921506881714,
                        -0.18188191950321198,
                        0.6565535664558411,
                        -0.017394350841641426,
                        0.03447674959897995,
                        -0.19267329573631287,
                        -0.12887369096279144
                    ],
                    [
                        -0.021392012014985085,
                        -0.44346240162849426,
                        0.08795010298490524,
                        -0.20802369713783264,
                        -0.27139586210250854,
                        -0.3000006675720215,
                        -0.24135631322860718,
                        0.2726426124572754,
                        -0.09044034034013748,
                        0.011266802437603474,
                        -0.650145947933197,
                        0.32521045207977295,
                        -0.06081397086381912,
                        0.2796432375907898,
                        0.6203199625015259,
                        0.198188915848732
                    ],
                    [
                        -0.18525974452495575,
                        0.40090012550354004,
                        0.1519395262002945,
                        0.13348133862018585,
                        -0.47902193665504456,
                        -0.10734884440898895,
                        -0.013624732382595539,
                        0.610496997833252,
                        0.3080427348613739,
                        -0.03741111233830452,
                        -0.04045533016324043,
                        0.01848064549267292,
                        -0.09694977104663849,
                        -0.010337058454751968,
                        0.6647389531135559,
                        0.1965339034795761
                    ],
                    [
                        -0.2509443759918213,
                        0.030142899602651596,
                        -0.1277926117181778,
                        0.14655321836471558,
                        0.6485930681228638,
                        0.27856895327568054,
                        0.12010257691144943,
                        0.23055076599121094,
                        0.1573491394519806,
                        0.13075080513954163,
                        -0.12010524421930313,
                        0.3249523937702179,
                        -0.19533105194568634,
                        -0.540556788444519,
                        0.6628256440162659,
                        -0.05953750014305115
                    ],
                    [
                        -0.436242938041687,
                        -0.011943957768380642,
                        -0.34811511635780334,
                        -0.5431667566299438,
                        0.14561563730239868,
                        -0.3043360710144043,
                        0.26192209124565125,
                        0.21350429952144623,
                        -0.14078038930892944,
                        0.37163257598876953,
                        -0.2222289890050888,
                        0.3512120544910431,
                        -0.03387756645679474,
                        0.1593317836523056,
                        0.002210965845733881,
                        -0.469171941280365
                    ],
                    [
                        -0.318328857421875,
                        0.370772123336792,
                        0.6473512053489685,
                        0.5452570915222168,
                        -0.3252616226673126,
                        0.16344822943210602,
                        0.002449954394251108,
                        0.6685470342636108,
                        -0.0293585192412138,
                        0.33012065291404724,
                        -0.36203575134277344,
                        0.021679861471056938,
                        -0.0045942943543195724,
                        0.05460338667035103,
                        -0.4422563910484314,
                        0.39475804567337036
                    ],
                    [
                        -0.061115942895412445,
                        -0.015179064124822617,
                        -0.16653428971767426,
                        -0.40953782200813293,
                        0.1025911346077919,
                        -0.29905471205711365,
                        0.17051908373832703,
                        0.32110244035720825,
                        -0.6827828288078308,
                        0.286657452583313,
                        0.03230311721563339,
                        -0.055410563945770264,
                        -0.051578156650066376,
                        0.7519068121910095,
                        0.027317969128489494,
                        0.11953824013471603
                    ],
                    [
                        -0.4992506206035614,
                        -0.1534932553768158,
                        -0.11476786434650421,
                        -0.352567583322525,
                        -0.05404568091034889,
                        0.06320155411958694,
                        0.34821876883506775,
                        0.5804605484008789,
                        0.676462709903717,
                        -0.40174755454063416,
                        0.2328530251979828,
                        -0.034429341554641724,
                        -0.24757035076618195,
                        0.2447526752948761,
                        0.5375967025756836,
                        -0.06647658348083496
                    ],
                    [
                        0.2228948324918747,
                        -0.15555568039417267,
                        0.2838403880596161,
                        0.10263554751873016,
                        0.6558010578155518,
                        -0.2730214297771454,
                        0.3255411386489868,
                        -0.19767192006111145,
                        -0.41539254784584045,
                        -0.16174225509166718,
                        -0.0882243812084198,
                        0.2146873027086258,
                        -0.3045556843280792,
                        0.18500399589538574,
                        0.45427602529525757,
                        -0.4240531325340271
                    ],
                    [
                        0.3879883885383606,
                        -0.24711930751800537,
                        -0.3109997808933258,
                        -0.47186708450317383,
                        -0.1587429940700531,
                        -0.277410626411438,
                        -0.11130329966545105,
                        0.6805229187011719,
                        0.18694695830345154,
                        -0.36088791489601135,
                        0.30478814244270325,
                        -0.1292269229888916,
                        0.09769538044929504,
                        -0.10555960237979889,
                        0.24546939134597778,
                        -0.157582089304924
                    ]
                ]
            },
            "FCN/~create_layers/linear_2": {
                "b": [
                    0.0,
                    -0.005456901621073484,
                    0.02497866377234459,
                    -0.029034148901700974,
                    0.01088623981922865,
                    0.016542967408895493,
                    -0.03445354849100113,
                    0.0,
                    0.0,
                    0.09769698232412338,
                    0.0,
                    -9.296954317505879e-07,
                    0.0,
                    0.0,
                    0.007699404843151569,
                    0.05454837530851364
                ],
                "w": [
                    [
                        -0.3851962983608246,
                        -0.07029301673173904,
                        -0.4499465227127075,
                        0.6423575282096863,
                        0.6208773255348206,
                        0.4076991677284241,
                        0.7019244432449341,
                        0.2773480713367462,
                        -0.13329783082008362,
                        0.46510249376296997,
                        0.20083869993686676,
                        -0.32767564058303833,
                        -0.06172863766551018,
                        -0.16150236129760742,
                        0.6335951685905457,
                        0.6062639355659485
                    ],
                    [
                        0.20522843301296234,
                        0.23631155490875244,
                        0.737197756767273,
                        0.23403124511241913,
                        -0.3310476839542389,
                        -0.050967440009117126,
                        0.08783061057329178,
                        0.32565242052078247,
                        0.3198995292186737,
                        -0.041133906692266464,
                        0.1033063679933548,
                        -0.0367860421538353,
                        -0.1295783370733261,
                        -0.06887105107307434,
                        0.48042067885398865,
                        0.785461962223053
                    ],
                    [
                        -0.06592611968517303,
                        0.47695454955101013,
                        -0.09148043394088745,
                        -0.4215918481349945,
                        0.3718535602092743,
                        -0.38060498237609863,
                        0.3726775646209717,
                        -0.12203490734100342,
                        0.4806008040904999,
                        0.4939335882663727,
                        -0.31612756848335266,
                        0.2732599079608917,
                        -0.1460779309272766,
                        -0.1806909292936325,
                        0.2658531665802002,
                        0.6097688674926758
                    ],
                    [
                        -0.4700580835342407,
                        -0.04197535291314125,
                        -0.2936044931411743,
                        -0.6624192595481873,
                        -0.4478325843811035,
                        0.26677459478378296,
                        0.5147942304611206,
                        0.3410027325153351,
                        -0.34176555275917053,
                        0.03885537013411522,
                        0.14325882494449615,
                        0.2683596909046173,
                        0.03376122936606407,
                        0.6647001504898071,
                        0.6787513494491577,
                        -0.23324306309223175
                    ],
                    [
                        -0.2616296112537384,
                        0.6530551314353943,
                        -0.08996215462684631,
                        0.1581793874502182,
                        0.2559986710548401,
                        -0.14049510657787323,
                        0.16379259526729584,
                        -0.23303404450416565,
                        -0.33531326055526733,
                        0.07977552711963654,
                        0.415184885263443,
                        0.5993607640266418,
                        -0.42595916986465454,
                        0.24316005408763885,
                        -0.3579082190990448,
                        0.12068888545036316
                    ],
                    [
                        -0.15542224049568176,
                        -0.09054984897375107,
                        0.6726409792900085,
                        -0.41314542293548584,
                        0.7571260333061218,
                        -0.7037351131439209,
                        -0.2423688918352127,
                        -0.26981160044670105,
                        -0.3906366229057312,
                        -0.23065027594566345,
                        0.09840541332960129,
                        -0.758804202079773,
                        -0.24193301796913147,
                        -0.019162539392709732,
                        -0.724748969078064,
                        0.270349383354187
                    ],
                    [
                        -0.004005321301519871,
                        -0.4074685275554657,
                        -0.2673366665840149,
                        0.17012512683868408,
                        -0.10940717905759811,
                        -0.13354656100273132,
                        -0.26534876227378845,
                        -0.33003950119018555,
                        0.6370334625244141,
                        -0.6867274641990662,
                        -0.13583749532699585,
                        0.1805899292230606,
                        -0.3930743336677551,
                        0.18459148705005646,
                        0.5148844718933105,
                        0.02118009328842163
                    ],
                    [
                        0.2695518732070923,
                        -0.06832437217235565,
                        -0.3452017903327942,
                        0.18769414722919464,
                        0.620437741279602,
                        -0.1768365204334259,
                        -0.24062226712703705,
                        0.06804171204566956,
                        0.2600041627883911,
                        0.39707428216934204,
                        -0.6101973652839661,
                        0.19469134509563446,
                        -0.05718554928898811,
                        -0.49435585737228394,
                        -0.0003412477090023458,
                        0.376482218503952
                    ],
                    [
                        0.02074604667723179,
                        0.17461659014225006,
                        0.06710658967494965,
                        0.28774160146713257,
                        -0.07907477021217346,
                        -0.10247279703617096,
                        -0.08762969821691513,
                        -0.4423845112323761,
                        -0.3312133550643921,
                        -0.14120790362358093,
                        0.5527145862579346,
                        0.38198408484458923,
                        -0.1293334662914276,
                        -0.14136122167110443,
                        0.5245506763458252,
                        0.3767267167568207
                    ],
                    [
                        -0.4080085754394531,
                        -0.20208977162837982,
                        -0.3656790256500244,
                        0.2385595440864563,
                        0.35335129499435425,
                        -0.19595927000045776,
                        0.008356577716767788,
                        0.3124077618122101,
                        -0.5277663469314575,
                        0.2437412291765213,
                        -0.3236903250217438,
                        -0.6724660396575928,
                        -0.13905741274356842,
                        0.2922149896621704,
                        -0.2829636037349701,
                        0.735614538192749
                    ],
                    [
                        -0.37087562680244446,
                        -0.5011783838272095,
                        0.6853416562080383,
                        -0.42226532101631165,
                        -0.26201897859573364,
                        0.6963557004928589,
                        0.025977425277233124,
                        -0.28180426359176636,
                        -0.23054739832878113,
                        -0.4463667571544647,
                        0.17194586992263794,
                        0.18156185746192932,
                        0.37701311707496643,
                        0.5233986377716064,
                        0.07513818889856339,
                        -0.03849702328443527
                    ],
                    [
                        -0.14273607730865479,
                        0.7325092554092407,
                        -0.4156048595905304,
                        0.24999882280826569,
                        0.007922755554318428,
                        -0.011351467110216618,
                        -0.12170905619859695,
                        -0.056038253009319305,
                        0.3947752118110657,
                        -0.027699224650859833,
                        -0.62105792760849,
                        -0.6163917183876038,
                        -0.23710750043392181,
                        -0.3018556535243988,
                        -0.07333023101091385,
                        0.013243683613836765
                    ],
                    [
                        0.06457202136516571,
                        -0.4359789788722992,
                        0.2659956216812134,
                        0.41208797693252563,
                        -0.10205873847007751,
                        0.3686417043209076,
                        0.07513636350631714,
                        -0.5049368739128113,
                        -0.10843422263860703,
                        0.637273371219635,
                        -0.24906356632709503,
                        0.34877702593803406,
                        0.42490434646606445,
                        0.06393026560544968,
                        -0.15858998894691467,
                        0.7165239453315735
                    ],
                    [
                        -0.03160897642374039,
                        -0.019117087125778198,
                        0.02109791524708271,
                        -0.3835078775882721,
                        0.15578754246234894,
                        -0.19650845229625702,
                        0.2430349588394165,
                        -0.18238839507102966,
                        0.008488043211400509,
                        0.2296212613582611,
                        -0.24848875403404236,
                        0.14313417673110962,
                        -0.5590740442276001,
                        0.07742182165384293,
                        -0.3380666971206665,
                        0.23429448902606964
                    ],
                    [
                        -0.12303083389997482,
                        0.44162607192993164,
                        0.30135536193847656,
                        0.1186765804886818,
                        0.021328354254364967,
                        0.1576320081949234,
                        -0.8102405667304993,
                        -0.03411372750997543,
                        -0.10404344648122787,
                        0.45845597982406616,
                        -0.16236835718154907,
                        -0.3765898644924164,
                        -0.23359590768814087,
                        -0.620797872543335,
                        0.04722089692950249,
                        0.2177979052066803
                    ],
                    [
                        -0.46832942962646484,
                        0.2188410758972168,
                        0.15421536564826965,
                        0.24750442802906036,
                        0.23647759854793549,
                        0.24295148253440857,
                        0.4117594361305237,
                        0.20888172090053558,
                        -0.044778674840927124,
                        -0.6235025525093079,
                        -0.38830673694610596,
                        0.335446834564209,
                        -0.17405593395233154,
                        -0.4257086217403412,
                        -0.37289369106292725,
                        0.08771957457065582
                    ]
                ]
            },
            "FCN/~create_layers/linear_3": {
                "b": [
                    -0.2078571319580078
                ],
                "w": [
                    [
                        0.07950489223003387
                    ],
                    [
                        -0.03888640180230141
                    ],
                    [
                        -0.1920251101255417
                    ],
                    [
                        0.09554361552000046
                    ],
                    [
                        -0.19141742587089539
                    ],
                    [
                        0.3372691869735718
                    ],
                    [
                        0.24340352416038513
                    ],
                    [
                        0.057012300938367844
                    ],
                    [
                        -0.03539258986711502
                    ],
                    [
                        -0.5424728989601135
                    ],
                    [
                        -0.23757193982601166
                    ],
                    [
                        0.043791793286800385
                    ],
                    [
                        0.3932678699493408
                    ],
                    [
                        -0.07672575116157532
                    ],
                    [
                        -0.052420783787965775
                    ],
                    [
                        -0.5558660626411438
                    ]
                ]
            }
        },
        "grads": {
            "FCN/~create_layers/linear": {
                "b": [
                    0.009194490499794483,
                    0.0,
                    -2.6104622520506382e-05,
                    -0.015188617631793022,
                    -0.0001253429800271988,
                    0.004230709746479988,
                    -0.0014281496405601501,
                    0.003533770330250263,
                    -0.003045319579541683,
                    -0.020474683493375778,
                    0.006765368860214949,
                    0.0,
                    0.014088885858654976,
                    0.02320721372961998,
                    0.0,
                    0.012952915392816067
                ],
                "w": [
                    [
                        0.012082891538739204,
                        0.0,
                        -2.6104622520506382e-05,
                        0.015775445848703384,
                        -0.0013365697814151645,
                        0.038190215826034546,
                        0.007007838226854801,
                        0.020507918670773506,
                        0.010760100558400154,
                        -0.020601391792297363,
                        0.0126322191208601,
                        0.0,
                        0.042830515652894974,
                        0.01305446494370699,
                        0.0,
                        0.01632436364889145
                    ],
                    [
                        0.00042879069223999977,
                        0.0,
                        0.00019942675135098398,
                        -0.0384971983730793,
                        0.0015370197361335158,
                        -0.03397396579384804,
                        -0.007909895852208138,
                        -0.01627383753657341,
                        -0.013741793110966682,
                        -0.010508880019187927,
                        -0.002471108688041568,
                        0.0,
                        -0.022996293380856514,
                        0.0246653463691473,
                        0.0,
                        0.0017190517392009497
                    ],
                    [
                        0.010307442396879196,
                        0.0,
                        -2.6104622520506382e-05,
                        -0.01089288480579853,
                        -0.00046727064182050526,
                        0.009978909976780415,
                        -0.0005820714868605137,
                        0.005557648371905088,
                        -0.002513987012207508,
                        -0.02045106142759323,
                        0.007894327864050865,
                        0.0,
                        0.018361592665314674,
                        0.021265123039484024,
                        0.0,
                        0.013782963156700134
                    ],
                    [
                        0.00870941299945116,
                        0.0,
                        0.00039399968227371573,
                        -0.01630307361483574,
                        -6.064656190574169e-05,
                        0.0027170293033123016,
                        -0.0020411922596395016,
                        0.0005744369700551033,
                        -0.003567508887499571,
                        -0.019665250554680824,
                        0.00610177218914032,
                        0.0,
                        0.010763979516923428,
                        0.02174277789890766,
                        0.0,
                        0.011344416067004204
                    ],
                    [
                        0.009824175387620926,
                        0.0,
                        -0.00041643029544502497,
                        -0.013116678223013878,
                        -0.0003170183044858277,
                        0.005086509510874748,
                        -0.00080061424523592,
                        0.0038603348657488823,
                        -0.003006444312632084,
                        -0.019994381815195084,
                        0.007397985551506281,
                        0.0,
                        0.014917315915226936,
                        0.022973842918872833,
                        0.0,
                        0.012438472360372543
                    ],
                    [
                        0.011732015758752823,
                        0.0,
                        -2.6104622520506382e-05,
                        -0.015074027702212334,
                        0.0002991865621879697,
                        -0.0038900692015886307,
                        0.0018115960992872715,
                        0.0005867956206202507,
                        -0.00520621333271265,
                        -0.01569400727748871,
                        0.006595131941139698,
                        0.0,
                        0.01080169714987278,
                        0.024307306855916977,
                        0.0,
                        0.009350523352622986
                    ]
                ]
            },
            "FCN/~create_layers/linear_1": {
                "b": [
                    0.029265133664011955,
                    0.0,
                    0.005854570306837559,
                    0.0,
                    0.0,
                    0.0,
                    0.0,
                    0.017218776047229767,
                    0.0,
                    0.014321539551019669,
                    0.0,
                    0.0008203121833503246,
                    0.009006137028336525,
                    0.0106877526268363,
                    -0.01131550595164299,
                    0.0
                ],
                "w": [
                    [
                        0.007208751514554024,
                        0.0,
                        0.003732223529368639,
                        0.0,
                        0.0,
                        0.0,
                        0.0,
                        0.002555529586970806,
                        0.0,
                        -0.030873626470565796,
                        0.0,
                        0.003576328046619892,
                        -0.03034259006381035,
                        -0.013332212343811989,
                        -0.03164071962237358,
                        0.0
                    ],
                    [
                        0.0,
                        0.0,
                        0.0,
                        0.0,
                        0.0,
                        0.0,
                        0.0,
                        0.0,
                        0.0,
                        0.0,
                        0.0,
                        0.0,
                        0.0,
                        0.0,
                        0.0,
                        0.0
                    ],
                    [
                        0.0007077795453369617,
                        0.0,
                        0.0,
                        0.0,
                        0.0,
                        0.0,
                        0.0,
                        0.0003343598509673029,
                        0.0,
                        0.0005787773407064378,
                        0.0,
                        -4.368246300145984e-05,
                        0.0005475839716382325,
                        0.000532151956576854,
                        0.00025931914569810033,
                        0.0
                    ],
                    [
                        -0.01767384633421898,
                        0.0,
                        0.0,
                        0.0,
                        0.0,
                        0.0,
                        0.0,
                        -0.012441412545740604,
                        0.0,
                        -0.05468720197677612,
                        0.0,
                        0.003783447900786996,
                        -0.045784346759319305,
                        -0.026116088032722473,
                        -0.028722982853651047,
                        0.0
                    ],
                    [
                        0.06591387093067169,
                        0.0,
                        0.010243715718388557,
                        0.0,
                        0.0,
                        0.0,
                        0.0,
                        0.040431175380945206,
                        0.0,
                        0.08762075006961823,
                        0.0,
                        -0.003746823174878955,
                        0.07235532253980637,
                        0.048328250646591187,
                        0.01894984394311905,
                        0.0
                    ],
                    [
                        0.08777304738759995,
                        0.0,
                        0.014473458752036095,
                        0.0,
                        0.0,
                        0.0,
                        0.0,
                        0.05308947339653969,
                        0.0,
                        0.07994519919157028,
                        0.0,
                        -0.0007961129304021597,
                        0.05883663520216942,
                        0.046926047652959824,
                        -0.0068691810593008995,
                        0.0
                    ],
                    [
                        0.018376240506768227,
                        0.0,
                        3.0218960091588087e-05,
                        0.0,
                        0.0,
                        0.0,
                        0.0,
                        0.0080823739990592,
                        0.0,
                        -0.007633838802576065,
                        0.0,
                        0.002990257926285267,
                        -0.018984604626893997,
                        -0.005547225009649992,
                        -0.026622308418154716,
                        0.0
                    ],
                    [
                        0.03238022327423096,
                        0.0,
                        0.006014411337673664,
                        0.0,
                        0.0,
                        0.0,
                        0.0,
                        0.021559366956353188,
                        0.0,
                        0.04386362433433533,
                        0.0,
                        -0.0017217613058164716,
                        0.03549956902861595,
                        0.02487238124012947,
                        0.00969106424599886,
                        0.0
                    ],
                    [
                        0.030635248869657516,
                        0.0,
                        0.011101562529802322,
                        0.0,
                        0.0,
                        0.0,
                        0.0,
                        0.019579341635107994,
                        0.0,
                        0.006535742431879044,
                        0.0,
                        0.000993582303635776,
                        0.009911943227052689,
                        0.011138517409563065,
                        -0.014721733517944813,
                        0.0
                    ],
                    [
                        0.022276539355516434,
                        0.0,
                        0.003491708543151617,
                        0.0,
                        0.0,
                        0.0,
                        0.0,
                        0.012672724202275276,
                        0.0,
                        0.03328684717416763,
                        0.0,
                        -0.001853905851021409,
                        0.028536401689052582,
                        0.018369397148489952,
                        0.010524524375796318,
                        0.0
                    ],
                    [
                        0.0012489077635109425,
                        0.0,
                        0.0,
                        0.0,
                        0.0,
                        0.0,
                        0.0,
                        0.001567617990076542,
                        0.0,
                        -0.0007218006066977978,
                        0.0,
                        0.00038747029611840844,
                        -0.0020268717780709267,
                        0.0001898260525194928,
                        -0.0013565804110839963,
                        0.0
                    ],
                    [
                        0.0,
                        0.0,
                        0.0,
                        0.0,
                        0.0,
                        0.0,
                        0.0,
                        0.0,
                        0.0,
                        0.0,
                        0.0,
                        0.0,
                        0.0,
                        0.0,
                        0.0,
                        0.0
                    ],
                    [
                        0.029290176928043365,
                        0.0,
                        0.005046497099101543,
                        0.0,
                        0.0,
                        0.0,
                        0.0,
                        0.019244514405727386,
                        0.0,
                        0.024400249123573303,
                        0.0,
                        0.0002235068241134286,
                        0.01691003516316414,
                        0.015198467299342155,
                        -0.004756989423185587,
                        0.0
                    ],
                    [
                        -0.0031082865316420794,
                        0.0,
                        0.00048134755343198776,
                        0.0,
                        0.0,
                        0.0,
                        0.0,
                        -0.0029301834292709827,
                        0.0,
                        -0.012173939496278763,
                        0.0,
                        0.000839333632029593,
                        -0.010427668690681458,
                        -0.005955166649073362,
                        -0.006830208469182253,
                        0.0
                    ],
                    [
                        0.0,
                        0.0,
                        0.0,
                        0.0,
                        0.0,
                        0.0,
                        0.0,
                        0.0,
                        0.0,
                        0.0,
                        0.0,
                        0.0,
                        0.0,
                        0.0,
                        0.0,
                        0.0
                    ],
                    [
                        0.060051266103982925,
                        0.0,
                        0.00922590121626854,
                        0.0,
                        0.0,
                        0.0,
                        0.0,
                        0.037071265280246735,
                        0.0,
                        0.035385750234127045,
                        0.0,
                        0.0021827418822795153,
                        0.015882186591625214,
                        0.021786469966173172,
                        -0.024632073938846588,
                        0.0
                    ]
                ]
            },
            "FCN/~create_layers/linear_2": {
                "b": [
                    0.0,
                    0.008356289938092232,
                    0.04114343971014023,
                    -0.020449884235858917,
                    0.04104029759764671,
                    -0.07224534451961517,
                    -0.05134938284754753,
                    0.0,
                    0.0,
                    0.11624851822853088,
                    0.0,
                    0.0,
                    0.0,
                    0.0,
                    0.011245056986808777,
                    0.11915800720453262
                ],
                "w": [
                    [
                        0.0,
                        0.0075721293687820435,
                        0.03728250414133072,
                        -0.01853085123002529,
                        0.0371890589594841,
                        -0.06546579301357269,
                        -0.04686176776885986,
                        0.0,
                        0.0,
                        0.1053396463394165,
                        0.0,
                        0.0,
                        0.0,
                        0.0,
                        0.010189814493060112,
                        0.10797614604234695
                    ],
                    [
                        0.0,
                        0.004178144969046116,
                        0.020571716129779816,
                        -0.010224942117929459,
                        0.020520150661468506,
                        -0.03612267225980759,
                        -0.025674689561128616,
                        0.0,
                        0.0,
                        0.05812424048781395,
                        0.0,
                        0.0,
                        0.0,
                        0.0,
                        0.005622528493404388,
                        0.05957900732755661
                    ],
                    [
                        0.0,
                        0.004183809272944927,
                        0.0205996073782444,
                        -0.010238803923130035,
                        0.02054796926677227,
                        -0.03617164492607117,
                        -0.025710036978125572,
                        0.0,
                        0.0,
                        0.058203041553497314,
                        0.0,
                        0.0,
                        0.0,
                        0.0,
                        0.005630151368677616,
                        0.05965978279709816
                    ],
                    [
                        0.0,
                        0.004178144969046116,
                        0.020571716129779816,
                        -0.010224942117929459,
                        0.020520150661468506,
                        -0.03612267225980759,
                        -0.025674689561128616,
                        0.0,
                        0.0,
                        0.05812424048781395,
                        0.0,
                        0.0,
                        0.0,
                        0.0,
                        0.005622528493404388,
                        0.05957900732755661
                    ],
                    [
                        0.0,
                        0.004178144969046116,
                        0.020571716129779816,
                        -0.010224942117929459,
                        0.020520150661468506,
                        -0.03612267225980759,
                        -0.025674689561128616,
                        0.0,
                        0.0,
                        0.05812424048781395,
                        0.0,
                        0.0,
                        0.0,
                        0.0,
                        0.005622528493404388,
                        0.05957900732755661
                    ],
                    [
                        0.0,
                        0.004178144969046116,
                        0.020571716129779816,
                        -0.010224942117929459,
                        0.020520150661468506,
                        -0.03612267225980759,
                        -0.025674689561128616,
                        0.0,
                        0.0,
                        0.05812424048781395,
                        0.0,
                        0.0,
                        0.0,
                        0.0,
                        0.005622528493404388,
                        0.05957900732755661
                    ],
                    [
                        0.0,
                        0.004178144969046116,
                        0.020571716129779816,
                        -0.010224942117929459,
                        0.020520150661468506,
                        -0.03612267225980759,
                        -0.025674689561128616,
                        0.0,
                        0.0,
                        0.05812424048781395,
                        0.0,
                        0.0,
                        0.0,
                        0.0,
                        0.005622528493404388,
                        0.05957900732755661
                    ],
                    [
                        0.0,
                        0.007046056911349297,
                        0.03469230979681015,
                        -0.01724342256784439,
                        0.034605350345373154,
                        -0.06091756373643875,
                        -0.043646227568387985,
                        0.0,
                        0.0,
                        0.09802117943763733,
                        0.0,
                        0.0,
                        0.0,
                        0.0,
                        0.009481878951191902,
                        0.100474514067173
                    ],
                    [
                        0.0,
                        0.004178144969046116,
                        0.020571716129779816,
                        -0.010224942117929459,
                        0.020520150661468506,
                        -0.03612267225980759,
                        -0.025674689561128616,
                        0.0,
                        0.0,
                        0.05812424048781395,
                        0.0,
                        0.0,
                        0.0,
                        0.0,
                        0.005622528493404388,
                        0.05957900732755661
                    ],
                    [
                        0.0,
                        0.0008667816873639822,
                        0.004267731681466103,
                        -0.002121228724718094,
                        0.00425703264772892,
                        -0.0074938759207725525,
                        -0.005584409460425377,
                        0.0,
                        0.0,
                        0.012058228254318237,
                        0.0,
                        0.0,
                        0.0,
                        0.0,
                        0.0011664284393191338,
                        0.012360040098428726
                    ],
                    [
                        0.0,
                        0.004178144969046116,
                        0.020571716129779816,
                        -0.010224942117929459,
                        0.020520150661468506,
                        -0.03612267225980759,
                        -0.025674689561128616,
                        0.0,
                        0.0,
                        0.05812424048781395,
                        0.0,
                        0.0,
                        0.0,
                        0.0,
                        0.005622528493404388,
                        0.05957900732755661
                    ],
                    [
                        0.0,
                        0.009497499093413353,
                        0.04676234722137451,
                        -0.02324269898235798,
                        0.046645138412714005,
                        -0.08211180567741394,
                        -0.05793570727109909,
                        0.0,
                        0.0,
                        0.1321243941783905,
                        0.0,
                        0.0,
                        0.0,
                        0.0,
                        0.012780782766640186,
                        0.13543128967285156
                    ],
                    [
                        0.0,
                        0.007972397841513157,
                        0.03925328701734543,
                        -0.019510407000780106,
                        0.03915489464998245,
                        -0.0689263567328453,
                        -0.04897414520382881,
                        0.0,
                        0.0,
                        0.11090800166130066,
                        0.0,
                        0.0,
                        0.0,
                        0.0,
                        0.01072845421731472,
                        0.11368385702371597
                    ],
                    [
                        0.0,
                        0.006757565774023533,
                        0.03327187895774841,
                        -0.016537414863705635,
                        0.033188480883836746,
                        -0.05842337757349014,
                        -0.042316898703575134,
                        0.0,
                        0.0,
                        0.09400786459445953,
                        0.0,
                        0.0,
                        0.0,
                        0.0,
                        0.009093656204640865,
                        0.09636074304580688
                    ],
                    [
                        0.0,
                        0.00938266422599554,
                        0.04619694873690605,
                        -0.02296166867017746,
                        0.04608114808797836,
                        -0.08111897110939026,
                        -0.05776685103774071,
                        0.0,
                        0.0,
                        0.13052690029144287,
                        0.0,
                        0.0,
                        0.0,
                        0.0,
                        0.012626249343156815,
                        0.13379378616809845
                    ],
                    [
                        0.0,
                        0.004178144969046116,
                        0.020571716129779816,
                        -0.010224942117929459,
                        0.020520150661468506,
                        -0.03612267225980759,
                        -0.025674689561128616,
                        0.0,
                        0.0,
                        0.05812424048781395,
                        0.0,
                        0.0,
                        0.0,
                        0.0,
                        0.005622528493404388,
                        0.05957900732755661
                    ]
                ]
            },
            "FCN/~create_layers/linear_3": {
                "b": [
                    -0.2142353355884552
                ],
                "w": [
                    [
                        0.0
                    ],
                    [
                        -0.23757493495941162
                    ],
                    [
                        -0.045476336032152176
                    ],
                    [
                        -0.1767810881137848
                    ],
                    [
                        -0.2980753183364868
                    ],
                    [
                        -0.08997520804405212
                    ],
                    [
                        -0.02455814741551876
                    ],
                    [
                        0.0
                    ],
                    [
                        0.0
                    ],
                    [
                        -0.2953369617462158
                    ],
                    [
                        0.0
                    ],
                    [
                        0.0
                    ],
                    [
                        0.0
                    ],
                    [
                        0.0
                    ],
                    [
                        -0.13698990643024445
                    ],
                    [
                        -0.6708511114120483
                    ]
                ]
            }
        },
        "train_loss": 1.7654622793197632,
        "val_loss": 1.4866844415664673,
        "val_accuracy": 0.020019661635160446
    },
    "16": {
        "params": {
            "FCN/~create_layers/linear": {
                "b": [
                    0.02655722014605999,
                    0.0,
                    -0.005961179733276367,
                    0.06363492459058762,
                    0.021268008276820183,
                    0.02278991974890232,
                    -0.025352472439408302,
                    -0.014211409725248814,
                    -0.03230702877044678,
                    0.08113864064216614,
                    0.0192823875695467,
                    7.41626281524077e-05,
                    -0.020945750176906586,
                    -0.0381605327129364,
                    0.0,
                    -0.06769394874572754
                ],
                "w": [
                    [
                        -0.8843405246734619,
                        0.298971027135849,
                        0.2540714144706726,
                        -0.9733498096466064,
                        0.9662860631942749,
                        1.042264699935913,
                        -0.8426517844200134,
                        0.7022424936294556,
                        0.4069177210330963,
                        0.5315147638320923,
                        0.24187885224819183,
                        -0.7278870940208435,
                        0.6484239101409912,
                        -0.46251147985458374,
                        -0.3421300947666168,
                        0.5858291983604431
                    ],
                    [
                        0.2940388321876526,
                        -0.6223117709159851,
                        -0.692369818687439,
                        1.2038058042526245,
                        -0.8566057085990906,
                        0.10536173731088638,
                        -0.13554544746875763,
                        -0.17251797020435333,
                        0.7872356176376343,
                        -0.7442768216133118,
                        0.5424193739891052,
                        0.4371863901615143,
                        0.9453198313713074,
                        0.39894047379493713,
                        -0.08209529519081116,
                        0.4794638752937317
                    ],
                    [
                        -0.7065172791481018,
                        0.2549775540828705,
                        0.9389671087265015,
                        0.0714428573846817,
                        0.10945139080286026,
                        0.9273033142089844,
                        0.06851669400930405,
                        -0.816787838935852,
                        0.10029222816228867,
                        0.6354357600212097,
                        -0.23940394818782806,
                        -0.4344623386859894,
                        0.2676721215248108,
                        -0.09870753437280655,
                        0.011680140160024166,
                        -0.3964586555957794
                    ],
                    [
                        1.2068817615509033,
                        -0.16582727432250977,
                        -0.3830108940601349,
                        -0.2789916396141052,
                        1.01441490650177,
                        0.04148199036717415,
                        0.32223623991012573,
                        0.18628212809562683,
                        0.6635465025901794,
                        -0.31989341974258423,
                        -1.1351869106292725,
                        0.8774063587188721,
                        -0.44288894534111023,
                        -0.10303561389446259,
                        -0.11893825978040695,
                        0.15709678828716278
                    ],
                    [
                        0.9413474202156067,
                        -0.8950682282447815,
                        -0.7363246083259583,
                        0.3086099922657013,
                        0.15185318887233734,
                        0.35583141446113586,
                        0.1786082684993744,
                        0.9600071310997009,
                        0.3535878658294678,
                        0.4513097405433655,
                        0.2053346186876297,
                        -0.7494889497756958,
                        -0.24361416697502136,
                        0.5662690997123718,
                        -0.4990267753601074,
                        0.6201842427253723
                    ],
                    [
                        0.2863328456878662,
                        -0.8598196506500244,
                        -0.0012031416408717632,
                        0.1942863166332245,
                        -0.13296836614608765,
                        0.12593097984790802,
                        1.228474497795105,
                        -0.25467875599861145,
                        -0.9978342652320862,
                        -0.18246500194072723,
                        0.6673043370246887,
                        -0.5793942213058472,
                        -0.023012027144432068,
                        -0.5270593166351318,
                        -0.1523963361978531,
                        0.7982956171035767
                    ]
                ]
            },
            "FCN/~create_layers/linear_1": {
                "b": [
                    -0.0235202144831419,
                    0.00021737355564255267,
                    -0.004541410598903894,
                    7.683676130909589e-07,
                    0.0,
                    -1.292892648052657e-05,
                    0.0,
                    -0.11342737823724747,
                    0.0016400472959503531,
                    0.05047004669904709,
                    0.0,
                    -0.04904812574386597,
                    -0.011514602228999138,
                    -0.014466838911175728,
                    0.04084799438714981,
                    0.0
                ],
                "w": [
                    [
                        0.1139834076166153,
                        -0.701259970664978,
                        -0.15754511952400208,
                        0.13453084230422974,
                        -0.3932296633720398,
                        -0.0897810310125351,
                        0.02535434253513813,
                        -0.0359528586268425,
                        -0.19119973480701447,
                        0.685038149356842,
                        -0.20883016288280487,
                        -0.3629349172115326,
                        -0.27863791584968567,
                        0.4058611989021301,
                        -0.28354236483573914,
                        -0.12449359148740768
                    ],
                    [
                        -0.27347254753112793,
                        0.05696692690253258,
                        0.12516668438911438,
                        0.6179001927375793,
                        -0.040446579456329346,
                        -0.010628962889313698,
                        0.3157537579536438,
                        0.20452962815761566,
                        0.057255856692790985,
                        -0.1537555754184723,
                        0.38144248723983765,
                        0.3842562735080719,
                        0.0968647375702858,
                        -0.19085003435611725,
                        -0.3318609595298767,
                        -0.544154942035675
                    ],
                    [
                        -0.030626889318227768,
                        -0.31697309017181396,
                        -0.4019269645214081,
                        -0.2571909427642822,
                        -0.6715828776359558,
                        0.06339119374752045,
                        0.1327727884054184,
                        0.4641914665699005,
                        -0.6733347177505493,
                        -0.4745495021343231,
                        0.36498555541038513,
                        0.36642423272132874,
                        0.45893099904060364,
                        0.07351917028427124,
                        -0.5738598108291626,
                        0.15782302618026733
                    ],
                    [
                        -0.5882042050361633,
                        0.44156613945961,
                        -0.2545851469039917,
                        -0.39054685831069946,
                        0.03307938948273659,
                        -0.024836305528879166,
                        -0.2521917223930359,
                        0.7337926030158997,
                        0.4779099225997925,
                        0.8020499348640442,
                        0.2360624372959137,
                        -0.5533292889595032,
                        0.7490449547767639,
                        0.3256780207157135,
                        0.057260774075984955,
                        -0.7676416635513306
                    ],
                    [
                        -0.17477944493293762,
                        -0.2890980541706085,
                        -0.22880500555038452,
                        -0.15805450081825256,
                        -0.3329601585865021,
                        0.24367596209049225,
                        -0.337803453207016,
                        -0.4015922546386719,
                        0.07912681251764297,
                        -0.45977580547332764,
                        -0.3821379542350769,
                        0.12324123829603195,
                        -0.3716071546077728,
                        0.08431009203195572,
                        -0.22341041266918182,
                        -0.7648254632949829
                    ],
                    [
                        0.13374218344688416,
                        -0.262177050113678,
                        0.33418601751327515,
                        0.2911556363105774,
                        -0.006527843419462442,
                        -0.29772451519966125,
                        -0.324970006942749,
                        -0.51188725233078,
                        -0.3693637549877167,
                        -0.1569797694683075,
                        -0.452852338552475,
                        0.5629656314849854,
                        0.4697689116001129,
                        -0.23213724792003632,
                        0.5966435670852661,
                        -0.6656889319419861
                    ],
                    [
                        -0.43388664722442627,
                        0.28472453355789185,
                        -0.2402094602584839,
                        -0.5241743922233582,
                        -0.5249253511428833,
                        0.4480539560317993,
                        0.2151723951101303,
                        0.06220219284296036,
                        -0.04324674233794212,
                        0.43509358167648315,
                        -0.18188191950321198,
                        0.6206116676330566,
                        -0.016093166545033455,
                        0.0368942990899086,
                        -0.14848142862319946,
                        -0.12887369096279144
                    ],
                    [
                        -0.039788637310266495,
                        -0.44346240162849426,
                        0.0845981240272522,
                        -0.20802317559719086,
                        -0.27139586210250854,
                        -0.3000008761882782,
                        -0.24135631322860718,
                        0.15612848103046417,
                        -0.08993039280176163,
                        -0.06661614030599594,
                        -0.650145947933197,
                        0.32824525237083435,
                        -0.16901612281799316,
                        0.18374651670455933,
                        0.6167235970497131,
                        0.198188915848732
                    ],
                    [
                        -0.2091400921344757,
                        0.40103092789649963,
                        0.14431990683078766,
                        0.13348276913166046,
                        -0.47902193665504456,
                        -0.10735426843166351,
                        -0.013624732382595539,
                        0.6028311252593994,
                        0.309805303812027,
                        0.24700309336185455,
                        -0.04045533016324043,
                        -0.14880336821079254,
                        0.01045816857367754,
                        0.07063055783510208,
                        0.6958667039871216,
                        0.1965339034795761
                    ],
                    [
                        -0.26433512568473816,
                        0.03015451319515705,
                        -0.13023699820041656,
                        0.14655371010303497,
                        0.6485930681228638,
                        0.2785645127296448,
                        0.12010257691144943,
                        0.013609620742499828,
                        0.15734180808067322,
                        -0.165346160531044,
                        -0.12010524421930313,
                        0.4596046805381775,
                        -0.45281675457954407,
                        -0.7336166501045227,
                        0.6549312472343445,
                        -0.05953750014305115
                    ],
                    [
                        -0.4361908733844757,
                        -0.011820843443274498,
                        -0.34816229343414307,
                        -0.5431667566299438,
                        0.14561563730239868,
                        -0.3043360710144043,
                        0.26192209124565125,
                        0.2513725757598877,
                        -0.14074352383613586,
                        0.47470957040786743,
                        -0.2222289890050888,
                        0.28380340337753296,
                        0.028035808354616165,
                        0.2235412448644638,
                        0.0061836340464651585,
                        -0.469171941280365
                    ],
                    [
                        -0.318328857421875,
                        0.370772123336792,
                        0.6473512053489685,
                        0.5452570915222168,
                        -0.3252616226673126,
                        0.16344822943210602,
                        0.002449954394251108,
                        0.6685523986816406,
                        -0.029358120635151863,
                        0.33013489842414856,
                        -0.36203575134277344,
                        0.021676471456885338,
                        -0.004583333618938923,
                        0.054610759019851685,
                        -0.44225549697875977,
                        0.39475804567337036
                    ],
                    [
                        -0.0836455374956131,
                        -0.014960620552301407,
                        -0.17064478993415833,
                        -0.4095373749732971,
                        0.1025911346077919,
                        -0.29905471205711365,
                        0.17051908373832703,
                        0.3099789619445801,
                        -0.6821669340133667,
                        0.4518611431121826,
                        0.03230311721563339,
                        -0.18956217169761658,
                        -0.00503354100510478,
                        0.8039225339889526,
                        0.04329752177000046,
                        0.11953824013471603
                    ],
                    [
                        -0.498370498418808,
                        -0.15348388254642487,
                        -0.11496000736951828,
                        -0.3525674343109131,
                        -0.05404568091034889,
                        0.06320155411958694,
                        0.34821876883506775,
                        0.5967047214508057,
                        0.6769417524337769,
                        -0.36072033643722534,
                        0.2328530251979828,
                        -0.048005443066358566,
                        -0.21601885557174683,
                        0.26866230368614197,
                        0.5431527495384216,
                        -0.06647658348083496
                    ],
                    [
                        0.2228948324918747,
                        -0.15555568039417267,
                        0.2838403880596161,
                        0.10263554751873016,
                        0.6558010578155518,
                        -0.2730214297771454,
                        0.3255411386489868,
                        -0.19767192006111145,
                        -0.41539254784584045,
                        -0.16174225509166718,
                        -0.0882243812084198,
                        0.2146873027086258,
                        -0.3045556843280792,
                        0.18500399589538574,
                        0.45427602529525757,
                        -0.4240531325340271
                    ],
                    [
                        0.3354285955429077,
                        -0.2468339502811432,
                        -0.31718823313713074,
                        -0.47186630964279175,
                        -0.1587429940700531,
                        -0.2774278521537781,
                        -0.11130329966545105,
                        0.4843383729457855,
                        0.18939520418643951,
                        -0.25705063343048096,
                        0.30478814244270325,
                        -0.2709861099720001,
                        0.05485301464796066,
                        -0.13426616787910461,
                        0.29684320092201233,
                        -0.157582089304924
                    ]
                ]
            },
            "FCN/~create_layers/linear_2": {
                "b": [
                    0.0,
                    0.06541486829519272,
                    0.008840333670377731,
                    -0.0029127991292625666,
                    -0.05510722100734711,
                    0.11786217242479324,
                    -0.05404486507177353,
                    0.0,
                    0.0,
                    -0.03348756581544876,
                    0.0,
                    -1.8433806872053538e-06,
                    0.0,
                    0.0,
                    0.037002693861722946,
                    -0.0921311005949974
                ],
                "w": [
                    [
                        -0.3851962983608246,
                        -0.03565806895494461,
                        -0.46335235238075256,
                        0.6582984328269958,
                        0.5824694037437439,
                        0.46808284521102905,
                        0.6988348960876465,
                        0.2773480713367462,
                        -0.13329783082008362,
                        0.38460031151771545,
                        0.20083869993686676,
                        -0.32767608761787415,
                        -0.06172863766551018,
                        -0.16150236129760742,
                        0.6470777988433838,
                        0.5172929763793945
                    ],
                    [
                        0.20522843301296234,
                        0.2717455327510834,
                        0.7291322946548462,
                        0.24708905816078186,
                        -0.36403903365135193,
                        -0.00031613311148248613,
                        0.07803168892860413,
                        0.32565242052078247,
                        0.3198995292186737,
                        -0.10671500861644745,
                        0.1033063679933548,
                        -0.03678650036454201,
                        -0.1295783370733261,
                        -0.06887105107307434,
                        0.495071142911911,
                        0.7121393084526062
                    ],
                    [
                        -0.06592611968517303,
                        0.5124032497406006,
                        -0.09957928210496902,
                        -0.408509761095047,
                        0.3388124704360962,
                        -0.3298724293708801,
                        0.36289119720458984,
                        -0.12203490734100342,
                        0.4806008040904999,
                        0.428236722946167,
                        -0.31612756848335266,
                        0.2732594609260559,
                        -0.1460779309272766,
                        -0.1806909292936325,
                        0.280505895614624,
                        0.5363181233406067
                    ],
                    [
                        -0.4700580835342407,
                        -0.006539494264870882,
                        -0.3016737103462219,
                        -0.6493585705757141,
                        -0.4808288812637329,
                        0.31743356585502625,
                        0.5050009489059448,
                        0.3410027325153351,
                        -0.34176555275917053,
                        -0.02673681452870369,
                        0.14325882494449615,
                        0.2683592438697815,
                        0.03376122936606407,
                        0.6647001504898071,
                        0.6934045553207397,
                        -0.30658262968063354
                    ],
                    [
                        -0.2616296112537384,
                        0.6884891390800476,
                        -0.09803155809640884,
                        0.17123949527740479,
                        0.22300156950950623,
                        -0.08983515948057175,
                        0.15399661660194397,
                        -0.23303404450416565,
                        -0.33531326055526733,
                        0.01418350264430046,
                        0.415184885263443,
                        0.5993602871894836,
                        -0.42595916986465454,
                        0.24316005408763885,
                        -0.34325718879699707,
                        0.047348909080028534
                    ],
                    [
                        -0.15542224049568176,
                        -0.0551140122115612,
                        0.6645730137825012,
                        -0.4000850021839142,
                        0.7241271734237671,
                        -0.6530747413635254,
                        -0.2521645128726959,
                        -0.26981160044670105,
                        -0.3906366229057312,
                        -0.2962415814399719,
                        0.09840541332960129,
                        -0.7588046789169312,
                        -0.24193301796913147,
                        -0.019162539392709732,
                        -0.7100957632064819,
                        0.1970091611146927
                    ],
                    [
                        -0.004005321301519871,
                        -0.3720329999923706,
                        -0.2754058837890625,
                        0.18318524956703186,
                        -0.14240431785583496,
                        -0.08288674056529999,
                        -0.27514374256134033,
                        -0.33003950119018555,
                        0.6370334625244141,
                        -0.7523190379142761,
                        -0.13583749532699585,
                        0.1805894672870636,
                        -0.3930743336677551,
                        0.18459148705005646,
                        0.5295376777648926,
                        -0.0521596223115921
                    ],
                    [
                        0.2695518732070923,
                        -0.16363847255706787,
                        -0.326364666223526,
                        0.15470589697360992,
                        0.705075204372406,
                        -0.29882919788360596,
                        -0.2617398798465729,
                        0.06804171204566956,
                        0.2600041627883911,
                        0.5652762651443481,
                        -0.6101973652839661,
                        0.1946904957294464,
                        -0.05718554928898811,
                        -0.49435585737228394,
                        -0.040481820702552795,
                        0.5624598860740662
                    ],
                    [
                        0.02074604667723179,
                        0.20927788317203522,
                        0.05936608836054802,
                        0.3004213571548462,
                        -0.11117532849311829,
                        -0.053112104535102844,
                        -0.09761425107717514,
                        -0.4423845112323761,
                        -0.3312133550643921,
                        -0.20492175221443176,
                        0.5527145862579346,
                        0.38198351860046387,
                        -0.1293334662914276,
                        -0.14136122167110443,
                        0.538908064365387,
                        0.3054790794849396
                    ],
                    [
                        -0.4080085754394531,
                        -0.3329164385795593,
                        -0.2969719469547272,
                        0.1656895875930786,
                        0.5212581753730774,
                        -0.45886877179145813,
                        -0.022145962342619896,
                        0.3124077618122101,
                        -0.5277663469314575,
                        0.599152684211731,
                        -0.3236903250217438,
                        -0.672466516494751,
                        -0.13905741274356842,
                        0.2922149896621704,
                        -0.33021634817123413,
                        1.135726809501648
                    ],
                    [
                        -0.37087562680244446,
                        -0.46574196219444275,
                        0.677273690700531,
                        -0.4092048704624176,
                        -0.29501527547836304,
                        0.7470161318778992,
                        0.016181765124201775,
                        -0.28180426359176636,
                        -0.23054739832878113,
                        -0.5119593739509583,
                        0.17194586992263794,
                        0.1815613955259323,
                        0.37701311707496643,
                        0.5233986377716064,
                        0.08978971838951111,
                        -0.11183682084083557
                    ],
                    [
                        -0.14273607730865479,
                        0.9107281565666199,
                        -0.47523507475852966,
                        0.32757508754730225,
                        -0.1802624613046646,
                        0.27826517820358276,
                        -0.12559914588928223,
                        -0.056038253009319305,
                        0.3947752118110657,
                        -0.41310060024261475,
                        -0.62105792760849,
                        -0.6163923144340515,
                        -0.23710750043392181,
                        -0.3018556535243988,
                        -0.0028722123242914677,
                        -0.4180762469768524
                    ],
                    [
                        0.06457202136516571,
                        -0.4776991903781891,
                        0.26662781834602356,
                        0.40219220519065857,
                        -0.07366552948951721,
                        0.33128979802131653,
                        0.06274177879095078,
                        -0.5049368739128113,
                        -0.10843422263860703,
                        0.688622236251831,
                        -0.24906356632709503,
                        0.34877637028694153,
                        0.42490434646606445,
                        0.06393026560544968,
                        -0.17735053598880768,
                        0.7738940119743347
                    ],
                    [
                        -0.03160897642374039,
                        -0.10426028072834015,
                        0.038161542266607285,
                        -0.41354262828826904,
                        0.2323199361562729,
                        -0.3078923225402832,
                        0.22930708527565002,
                        -0.18238839507102966,
                        0.008488043211400509,
                        0.380423903465271,
                        -0.24848875403404236,
                        0.14313356578350067,
                        -0.5590740442276001,
                        0.07742182165384293,
                        -0.3736223876476288,
                        0.4031018912792206
                    ],
                    [
                        -0.12303083389997482,
                        0.519949197769165,
                        0.27118074893951416,
                        0.1553271859884262,
                        -0.06624918431043625,
                        0.2952291965484619,
                        -0.8222587704658508,
                        -0.03411372750997543,
                        -0.10404344648122787,
                        0.2775290608406067,
                        -0.16236835718154907,
                        -0.3765907287597656,
                        -0.23359590768814087,
                        -0.620797872543335,
                        0.0774526447057724,
                        0.014584512449800968
                    ],
                    [
                        -0.46832942962646484,
                        0.25427794456481934,
                        0.14614605903625488,
                        0.26056551933288574,
                        0.20347964763641357,
                        0.2936100661754608,
                        0.4019644558429718,
                        0.20888172090053558,
                        -0.044778674840927124,
                        -0.6890941262245178,
                        -0.38830673694610596,
                        0.33544638752937317,
                        -0.17405593395233154,
                        -0.4257086217403412,
                        -0.3582426607608795,
                        0.014379789121448994
                    ]
                ]
            },
            "FCN/~create_layers/linear_3": {
                "b": [
                    -0.03675408288836479
                ],
                "w": [
                    [
                        0.07950489223003387
                    ],
                    [
                        0.7569400072097778
                    ],
                    [
                        -0.05300618335604668
                    ],
                    [
                        0.19710075855255127
                    ],
                    [
                        -0.5451942086219788
                    ],
                    [
                        0.756403923034668
                    ],
                    [
                        0.24844996631145477
                    ],
                    [
                        0.057012300938367844
                    ],
                    [
                        -0.03539258986711502
                    ],
                    [
                        -1.057173490524292
                    ],
                    [
                        -0.23757193982601166
                    ],
                    [
                        0.04379168525338173
                    ],
                    [
                        0.3932678699493408
                    ],
                    [
                        -0.07672575116157532
                    ],
                    [
                        0.3396156430244446
                    ],
                    [
                        -1.1022735834121704
                    ]
                ]
            }
        },
        "grads": {
            "FCN/~create_layers/linear": {
                "b": [
                    -0.018986444920301437,
                    0.0,
                    0.0013389312662184238,
                    -0.04453784227371216,
                    0.014377955347299576,
                    0.020842183381319046,
                    0.003547844011336565,
                    0.0020172586664557457,
                    -0.01775408908724785,
                    0.019329167902469635,
                    -0.014958108775317669,
                    0.0,
                    -0.024119317531585693,
                    -0.0027837827801704407,
                    0.0,
                    -0.00739429472014308
                ],
                "w": [
                    [
                        -0.03827575966715813,
                        0.0,
                        0.0013389312662184238,
                        -0.08674825727939606,
                        0.034969229251146317,
                        0.03536172956228256,
                        0.0038152015767991543,
                        0.007688118144869804,
                        -0.03199251368641853,
                        0.03934415802359581,
                        -0.0221778005361557,
                        0.0,
                        -0.04484296962618828,
                        -0.0007401242619380355,
                        0.0,
                        -0.011192789301276207
                    ],
                    [
                        -0.06586431711912155,
                        0.0,
                        0.0006495780544355512,
                        -0.1613185554742813,
                        0.06479842215776443,
                        0.055450208485126495,
                        0.0021824780851602554,
                        0.015417267568409443,
                        -0.054474882781505585,
                        0.08186277747154236,
                        -0.039566460996866226,
                        0.0,
                        -0.08379755914211273,
                        -0.00277783814817667,
                        0.0,
                        -0.017804408445954323
                    ],
                    [
                        0.006419154815375805,
                        0.0,
                        0.0013389312662184238,
                        0.018694479018449783,
                        -0.012296242639422417,
                        0.0011839810758829117,
                        0.00202385731972754,
                        -0.006025372073054314,
                        0.0021501602604985237,
                        -0.013365102000534534,
                        -0.001900460571050644,
                        0.0,
                        0.006843036040663719,
                        -0.0027142190374433994,
                        0.0,
                        -0.0011584630701690912
                    ],
                    [
                        -0.015315601602196693,
                        0.0,
                        0.0005710909026674926,
                        -0.04317501187324524,
                        0.015924274921417236,
                        0.01798713393509388,
                        0.003962760325521231,
                        0.0030924156308174133,
                        -0.0166929941624403,
                        0.016800839453935623,
                        -0.013459993526339531,
                        0.0,
                        -0.01967836171388626,
                        -0.0026062456890940666,
                        0.0,
                        -0.008111956529319286
                    ],
                    [
                        -0.005540419369935989,
                        0.0,
                        0.0010875092120841146,
                        -0.014424946159124374,
                        0.0014879554510116577,
                        0.009908877313137054,
                        0.004676680080592632,
                        -0.000244850292801857,
                        -0.0070401765406131744,
                        0.004505041986703873,
                        -0.006880296394228935,
                        0.0,
                        -0.007546994835138321,
                        -0.0027837827801704407,
                        0.0,
                        -0.004566337913274765
                    ],
                    [
                        -0.008203752338886261,
                        0.0,
                        0.0013389312662184238,
                        -0.01670243591070175,
                        0.0024843979626893997,
                        0.015248041599988937,
                        0.005306058097630739,
                        -0.0006032455712556839,
                        -0.009691422805190086,
                        0.006932254880666733,
                        -0.00633612833917141,
                        0.0,
                        -0.01121198758482933,
                        -0.0026869499124586582,
                        0.0,
                        -0.006883006077259779
                    ]
                ]
            },
            "FCN/~create_layers/linear_1": {
                "b": [
                    0.0010539100039750338,
                    0.0,
                    0.0,
                    0.0,
                    0.0,
                    0.0,
                    0.0,
                    -0.016675906255841255,
