{
    "0": {
        "params": {
            "FCN/~create_layers/linear": {
                "b": [
                    0.007802804000675678,
                    -0.002051397692412138,
                    0.001184733584523201,
                    -0.00326734222471714,
                    2.802072231133934e-05,
                    0.00015484153118450195,
                    0.003837503492832184,
                    -0.00012710021110251546,
                    -0.0031155527103692293,
                    3.009806164300244e-07,
                    -0.0028794019017368555,
                    0.0,
                    -0.005846700165420771,
                    3.3067808544728905e-05,
                    -1.1579630836422439e-06,
                    -0.002163560362532735,
                    -0.004427996929734945,
                    -0.001488968962803483,
                    8.837846507958602e-06,
                    0.0011694773565977812,
                    -0.003993108868598938,
                    0.0013044408988207579,
                    0.0032939871307462454,
                    -9.164884977508336e-05,
                    0.0006142798811197281,
                    0.0,
                    0.003285751212388277,
                    5.71781383769121e-05,
                    -0.00041260270518250763,
                    -0.004114534705877304,
                    0.005665268748998642,
                    0.012570105493068695,
                    -5.3489689889829606e-05,
                    -0.0002299089974258095,
                    -0.0017429095460101962,
                    0.0,
                    0.0011107499012723565,
                    -0.0018945205956697464,
                    1.7238480722880922e-05,
                    -0.0033567699138075113,
                    0.0001321812451351434,
                    0.002729903906583786,
                    -0.0020414157770574093,
                    -0.0004533882311079651,
                    4.5612403482664376e-05,
                    0.0012189792469143867,
                    -0.001766169909387827,
                    0.0,
                    6.968688239794574e-07,
                    4.310027463816368e-07,
                    0.003053661435842514,
                    0.0006184136727824807,
                    3.607977123465389e-05,
                    0.0,
                    0.0001303203753195703,
                    -4.0270524692687104e-08,
                    -0.0014580638380721211,
                    0.0023767324164509773,
                    0.0009990589460358024,
                    -0.0005893957568332553,
                    1.7314572687610053e-05,
                    -1.6031935956561938e-05,
                    0.006838701665401459,
                    0.0011353397276252508
                ],
                "w": [
                    [
                        -1.0160667896270752,
                        1.1730992794036865,
                        -1.149463176727295,
                        -1.214784860610962,
                        -0.5583754777908325,
                        -0.009085966274142265,
                        0.2297183722257614,
                        -0.2004719078540802,
                        0.5107407569885254,
                        0.5580418109893799,
                        -0.10625414550304413,
                        -0.6500082612037659,
                        -0.9239144921302795,
                        -0.197139173746109,
                        -0.23168882727622986,
                        -0.2525239586830139,
                        -0.1568550020456314,
                        -0.5851078629493713,
                        0.21551834046840668,
                        -0.009324448183178902,
                        0.6574154496192932,
                        0.27689170837402344,
                        0.523536741733551,
                        -1.1815942525863647,
                        -0.42809194326400757,
                        -0.9210904836654663,
                        0.7387450337409973,
                        0.797432541847229,
                        -0.8332144021987915,
                        0.5213302969932556,
                        0.09068277478218079,
                        -0.2685800790786743,
                        0.6534752249717712,
                        -1.2659510374069214,
                        -0.05525568872690201,
                        -0.6648128032684326,
                        -1.287263035774231,
                        -0.21010437607765198,
                        -0.18495261669158936,
                        -0.20396634936332703,
                        -0.29296404123306274,
                        -0.20589420199394226,
                        0.42988115549087524,
                        0.06771297007799149,
                        0.3177299499511719,
                        -0.1943226456642151,
                        0.6339392066001892,
                        -0.6881290674209595,
                        -0.27160000801086426,
                        0.16707350313663483,
                        -0.6481372117996216,
                        0.34723931550979614,
                        0.42852720618247986,
                        -0.4450933635234833,
                        0.7676305770874023,
                        -0.8100289106369019,
                        -0.08843120187520981,
                        0.04936721548438072,
                        0.8382738828659058,
                        -0.09725034236907959,
                        -0.47233229875564575,
                        0.3841681480407715,
                        -0.11731816828250885,
                        0.8997310400009155
                    ],
                    [
                        0.9917412996292114,
                        -0.346746027469635,
                        -0.8148717880249023,
                        -0.7500069737434387,
                        -0.5639609098434448,
                        -0.1077098548412323,
                        0.6127232313156128,
                        0.03916004300117493,
                        0.1765260100364685,
                        -1.0477097034454346,
                        0.26274415850639343,
                        0.8858948945999146,
                        -0.020521635189652443,
                        1.2230231761932373,
                        0.7343248128890991,
                        0.49185216426849365,
                        0.8917137980461121,
                        -0.8206523656845093,
                        0.2500291168689728,
                        0.3369702398777008,
                        0.4557693302631378,
                        0.8726590275764465,
                        0.28312379121780396,
                        -0.03605744242668152,
                        0.5624452233314514,
                        0.07006756216287613,
                        -0.5513446927070618,
                        0.07660398632287979,
                        0.5445690155029297,
                        -0.6917507648468018,
                        1.2179045677185059,
                        0.5722266435623169,
                        0.20485615730285645,
                        0.10950087010860443,
                        0.9348896741867065,
                        -0.4890877604484558,
                        -0.0716564878821373,
                        -0.5318318605422974,
                        0.17901411652565002,
                        0.27065059542655945,
                        -0.5120439529418945,
                        -0.7699435353279114,
                        -0.21629944443702698,
                        -0.20761814713478088,
                        -0.8204303979873657,
                        -0.16194991767406464,
                        0.8574619293212891,
                        -0.29334351420402527,
                        -0.4589466452598572,
                        0.771090567111969,
                        0.056802280247211456,
                        0.8776119351387024,
                        0.8856802582740784,
                        -0.36173659563064575,
                        -0.13985010981559753,
                        -0.3462688624858856,
                        0.16585715115070343,
                        0.8169965147972107,
                        -0.3915138840675354,
                        0.21787256002426147,
                        -0.057983946055173874,
                        -0.7049120664596558,
                        0.8331214189529419,
                        0.9216185212135315
                    ],
                    [
                        -0.05950552970170975,
                        0.5265441536903381,
                        0.34269097447395325,
                        0.5418077707290649,
                        0.1744556427001953,
                        -0.6866623163223267,
                        0.6838594079017639,
                        0.5811265110969543,
                        -0.17752915620803833,
                        -0.018695387989282608,
                        -0.2822249233722687,
                        -0.24457743763923645,
                        0.42530545592308044,
                        -1.1881788969039917,
                        0.08823084831237793,
                        0.10734108835458755,
                        -0.10675796121358871,
                        -0.12936194241046906,
                        -1.0024421215057373,
                        -0.46650537848472595,
                        -1.009641170501709,
                        0.8125851154327393,
                        -0.003550963941961527,
                        -0.3323231041431427,
                        0.7285532355308533,
                        -0.4899357259273529,
                        0.6635306477546692,
                        -0.7829200029373169,
                        0.8968464136123657,
                        0.5694739818572998,
                        -1.3064491748809814,
                        0.7525249123573303,
                        -0.0402032695710659,
                        -0.2306678593158722,
                        0.4976058006286621,
                        0.04726175218820572,
                        0.25077715516090393,
                        -0.0006522696348838508,
                        -0.6463732719421387,
                        -0.6364085078239441,
                        0.019650133326649666,
                        0.9081383943557739,
                        1.2471638917922974,
                        0.26283952593803406,
                        0.0007024197257123888,
                        1.1390206813812256,
                        -0.20457351207733154,
                        -0.0632060319185257,
                        0.48633697628974915,
                        -0.8082034587860107,
                        0.3865104019641876,
                        -0.46146130561828613,
                        -0.39409905672073364,
                        -0.3713136315345764,
                        0.3175566494464874,
                        -0.7660177946090698,
                        0.403093159198761,
                        0.1966668665409088,
                        0.13365276157855988,
                        0.6619735360145569,
                        0.46930575370788574,
                        1.046250581741333,
                        -0.7340571880340576,
                        -0.09751064330339432
                    ],
                    [
                        0.2440970242023468,
                        -0.3650048077106476,
                        0.8874162435531616,
                        0.4777514934539795,
                        0.8233902454376221,
                        0.4051080048084259,
                        -0.7991980314254761,
                        -0.3155684471130371,
                        0.23338884115219116,
                        -0.2603980004787445,
                        0.6857925653457642,
                        -0.7400241494178772,
                        -0.3265136778354645,
                        0.1264512985944748,
                        0.08066663146018982,
                        -0.8172987103462219,
                        0.3241640627384186,
                        0.09493694454431534,
                        -0.3919312655925751,
                        0.712382435798645,
                        0.06245625391602516,
                        -0.10102599114179611,
                        -0.5863801836967468,
                        -0.09042774885892868,
                        -0.5295363068580627,
                        0.2873823046684265,
                        -0.18577364087104797,
                        -1.0688890218734741,
                        0.5016512274742126,
                        0.9800753593444824,
                        0.41269969940185547,
                        -0.13877195119857788,
                        0.5054641962051392,
                        0.677399754524231,
                        -0.19025664031505585,
                        -0.6583680510520935,
                        0.5137038826942444,
                        -0.15450072288513184,
                        0.23333007097244263,
                        0.5746912360191345,
                        -0.7458387017250061,
                        1.272108554840088,
                        0.6263654828071594,
                        0.196437269449234,
                        -0.7864946722984314,
                        -0.4578619599342346,
                        0.3279990255832672,
                        0.6544999480247498,
                        0.4378039836883545,
                        -0.27641531825065613,
                        -0.491296648979187,
                        -0.3728102147579193,
                        -0.15447594225406647,
                        0.9587168097496033,
                        -0.9806770086288452,
                        -0.0606827475130558,
                        -0.9349314570426941,
                        0.8731394410133362,
                        0.7618728280067444,
                        0.02347458526492119,
                        -1.2564233541488647,
                        -1.0770155191421509,
                        -0.5922300219535828,
                        0.9541429281234741
                    ],
                    [
                        -0.4701160490512848,
                        -0.9364492297172546,
                        0.6143532991409302,
                        0.5878680944442749,
                        -0.49633467197418213,
                        0.11723130941390991,
                        1.0306742191314697,
                        0.23078081011772156,
                        0.8728420734405518,
                        -0.5685967803001404,
                        -0.29511508345603943,
                        -0.7018219232559204,
                        0.686573326587677,
                        -0.08687461167573929,
                        -0.9422890543937683,
                        0.41605252027511597,
                        0.8216346502304077,
                        1.0316252708435059,
                        -0.38262030482292175,
                        0.5084890723228455,
                        0.21287314593791962,
                        -0.808333694934845,
                        0.5971015691757202,
                        0.4229634702205658,
                        0.5545811653137207,
                        -0.7257583141326904,
                        -0.2610311806201935,
                        0.24326364696025848,
                        -0.6786078214645386,
                        -0.616754949092865,
                        -0.673999547958374,
                        -0.04627086967229843,
                        -1.0151689052581787,
                        0.6086838245391846,
                        -0.584438145160675,
                        -0.7009829878807068,
                        -0.19912295043468475,
                        0.24642910063266754,
                        0.4099248945713043,
                        -0.21116352081298828,
                        0.3207060992717743,
                        0.8120203614234924,
                        0.1674879491329193,
                        -0.7433968782424927,
                        -0.03934834524989128,
                        -0.20729276537895203,
                        0.11038556694984436,
                        -0.18286170065402985,
                        -0.9371342062950134,
                        -0.16679438948631287,
                        1.1072752475738525,
                        -0.5632867217063904,
                        -0.4900701642036438,
                        -0.33930110931396484,
                        0.08298984915018082,
                        -0.3170112669467926,
                        -1.1468039751052856,
                        -0.127483069896698,
                        0.42729923129081726,
                        -0.05983796715736389,
                        -0.028887692838907242,
                        -0.17104493081569672,
                        -0.17577742040157318,
                        0.13616977632045746
                    ],
                    [
                        0.47247517108917236,
                        -0.3049110472202301,
                        0.08812004327774048,
                        -0.161019966006279,
                        -0.13138702511787415,
                        -0.049481913447380066,
                        -0.06679126620292664,
                        -0.866111695766449,
                        0.7717709541320801,
                        0.15297596156597137,
                        0.3129609525203705,
                        -0.8547370433807373,
                        0.6695064306259155,
                        -1.158190131187439,
                        -0.6197776794433594,
                        -0.20705509185791016,
                        0.5559256076812744,
                        -0.13084430992603302,
                        0.4055787920951843,
                        -0.9867162108421326,
                        0.7001745700836182,
                        0.6031470894813538,
                        -0.45203274488449097,
                        0.10259057581424713,
                        0.3317432701587677,
                        -0.38598260283470154,
                        0.22744295001029968,
                        -0.22802412509918213,
                        -1.0609447956085205,
                        0.9622761011123657,
                        0.8447180390357971,
                        -0.7265913486480713,
                        -0.549420177936554,
                        0.6818353533744812,
                        -0.7301483154296875,
                        0.4956902861595154,
                        1.256589412689209,
                        0.86927330493927,
                        -0.7741248607635498,
                        0.09654185175895691,
                        0.6010141372680664,
                        0.7385649681091309,
                        1.003021478652954,
                        0.18404701352119446,
                        0.36288997530937195,
                        -0.14425867795944214,
                        -0.2051289677619934,
                        -0.9306727051734924,
                        -0.2969883978366852,
                        -0.7492490410804749,
                        0.17390498518943787,
                        0.2658037543296814,
                        -0.7280075550079346,
                        -0.6002349257469177,
                        -0.9909018874168396,
                        0.9351386427879333,
                        1.3076986074447632,
                        -0.6408196687698364,
                        -0.22205956280231476,
                        -0.017867477610707283,
                        -0.05718573182821274,
                        -0.6497926712036133,
                        0.6165890097618103,
                        0.6432703137397766
                    ]
                ]
            },
            "FCN/~create_layers/linear_1": {
                "b": [
                    0.001932384679093957,
                    0.00010342211317038164,
                    6.0088968893978745e-05,
                    0.0,
                    0.0009168381802737713,
                    0.0019011336844414473,
                    -9.534047421766445e-06,
                    -0.0013407340738922358,
                    0.0,
                    0.0005853548645973206,
                    0.0008648594375699759,
                    0.0020616590045392513,
                    0.0,
                    0.0001567237777635455,
                    -0.0054352860897779465,
                    0.00028281958657316864,
                    0.0,
                    0.0,
                    -0.002011502394452691,
                    6.716957432217896e-05,
                    -0.005366683937609196,
                    0.008791213855147362,
                    -0.0038419447373598814,
                    0.0033108664210885763,
                    -2.069546781058307e-06,
                    0.0012985897483304143,
                    0.0009721489041112363,
                    0.010245096869766712,
                    0.004695706069469452,
                    -7.892942085163668e-05,
                    -0.0014198971912264824,
                    0.00021166427177377045
                ],
                "w": [
                    [
                        -0.01615728810429573,
                        0.11913519352674484,
                        -0.26132339239120483,
                        -0.029406998306512833,
                        0.2194385528564453,
                        -0.11367412656545639,
                        0.12172120064496994,
                        0.14771337807178497,
                        0.16728544235229492,
                        0.29879724979400635,
                        0.10321676731109619,
                        -0.26711854338645935,
                        -0.00367966340854764,
                        -0.2461240440607071,
                        0.2816760241985321,
                        0.2855079174041748,
                        0.14452023804187775,
                        -0.016315290704369545,
                        -0.17822003364562988,
                        -0.23726823925971985,
                        0.2862580418586731,
                        0.038492318242788315,
                        0.27959907054901123,
                        -0.0898781567811966,
                        0.20767897367477417,
                        0.03431558236479759,
                        -0.012320098467171192,
                        0.29984986782073975,
                        -0.16981740295886993,
                        0.0484570749104023,
                        -0.02951608970761299,
                        0.23619593679904938
                    ],
                    [
                        -0.10444800555706024,
                        -0.23508431017398834,
                        -0.2028612196445465,
                        -0.28311488032341003,
                        -0.19454345107078552,
                        -0.08095709979534149,
                        -0.24229109287261963,
                        -0.012113738805055618,
                        -0.18585897982120514,
                        -0.2170419692993164,
                        -0.2888593375682831,
                        0.017659127712249756,
                        -0.07535651326179504,
                        -0.022578537464141846,
                        0.09013717621564865,
                        0.321252703666687,
                        -0.18135525286197662,
                        0.1428324431180954,
                        0.4004462659358978,
                        -0.09610152989625931,
                        -0.04377938434481621,
                        0.32057273387908936,
                        -0.38936492800712585,
                        -0.07427994161844254,
                        -0.1622268408536911,
                        0.16037222743034363,
                        -0.0048207170329988,
                        -0.04582962021231651,
                        -0.16129185259342194,
                        0.2241200953722,
                        0.1140596941113472,
                        0.19484195113182068
                    ],
                    [
                        -0.3269348740577698,
                        -0.2583155632019043,
                        0.028079763054847717,
                        -0.4018709361553192,
                        -0.16644951701164246,
                        -0.10393944382667542,
                        -0.1129649206995964,
                        -0.004142543766647577,
                        0.2550143599510193,
                        0.029412414878606796,
                        0.3748367130756378,
                        -0.20978449285030365,
                        -0.3522675335407257,
                        0.03334285318851471,
                        -0.11204016208648682,
                        0.22199484705924988,
                        0.03243386745452881,
                        -0.1301848590373993,
                        0.015433181077241898,
                        0.2844109833240509,
                        0.2582276463508606,
                        0.027133887633681297,
                        -0.3366050124168396,
                        0.19245636463165283,
                        -0.1302987039089203,
                        0.17386895418167114,
                        -0.2858369052410126,
                        -0.1790991723537445,
                        0.18469852209091187,
                        -0.1161339208483696,
                        -0.25837576389312744,
                        0.07043337821960449
                    ],
                    [
                        0.4014696180820465,
                        0.09705940634012222,
                        0.24499158561229706,
                        0.25847041606903076,
                        -0.06216159835457802,
                        0.15748775005340576,
                        0.07632150501012802,
                        0.29086750745773315,
                        0.09643815457820892,
                        -0.0037336647510528564,
                        0.0010870253900066018,
                        -0.006039325147867203,
                        0.07380069047212601,
                        0.09952597320079803,
                        0.36917078495025635,
                        0.05083701014518738,
                        0.18059836328029633,
                        -0.03937381133437157,
                        0.04644795134663582,
                        -0.21201825141906738,
                        -0.04246949031949043,
                        0.02937023900449276,
                        -0.22016455233097076,
                        -0.05183357372879982,
                        0.0878058522939682,
                        -0.09653149545192719,
                        0.10015475749969482,
                        -0.0965856984257698,
                        0.10434117168188095,
                        -0.056143295019865036,
                        0.053078364580869675,
                        0.2330627590417862
                    ],
                    [
                        0.26691293716430664,
                        0.020826663821935654,
                        0.18690669536590576,
                        -0.383923202753067,
                        0.0009573775460012257,
                        -0.14452990889549255,
                        0.1681451052427292,
                        -0.11821743845939636,
                        0.14799515902996063,
                        0.0933988019824028,
                        -0.23243290185928345,
                        -0.07925385236740112,
                        -0.08124805241823196,
                        -0.07197093218564987,
                        -0.0995141789317131,
                        0.14114268124103546,
                        0.09904927760362625,
                        0.13835181295871735,
                        -0.3694414794445038,
                        -0.00591241242364049,
                        0.23389875888824463,
                        -0.07969649136066437,
                        0.21266745030879974,
                        0.023180127143859863,
                        0.1527775079011917,
                        0.22917592525482178,
                        -0.32071805000305176,
                        0.1543208807706833,
                        0.06195379048585892,
                        -0.31698817014694214,
                        0.1335914582014084,
                        -0.34956419467926025
                    ],
                    [
                        0.2594580054283142,
                        0.14098602533340454,
                        -0.3398345410823822,
                        -0.09962563961744308,
                        -0.14057596027851105,
                        -0.07772184908390045,
                        0.04528997465968132,
                        -0.04547788202762604,
                        -0.0314805842936039,
                        -0.280354380607605,
                        -0.06682847440242767,
                        0.28709009289741516,
                        0.2147020697593689,
                        0.09022466838359833,
                        0.10618046671152115,
                        0.009517528116703033,
                        0.12742294371128082,
                        0.033319707959890366,
                        0.37613916397094727,
                        -0.04604277387261391,
                        0.09603165090084076,
                        -0.0030586167704313993,
                        -0.16915126144886017,
                        0.09323269873857498,
                        -0.06365896016359329,
                        0.10158085078001022,
                        0.06545529514551163,
                        0.12550291419029236,
                        -0.20111826062202454,
                        -0.1420731395483017,
                        0.12392741441726685,
                        0.2700888514518738
                    ],
                    [
                        -0.009576650336384773,
                        -0.1357296258211136,
                        0.024245960637927055,
                        -0.025240151211619377,
                        0.03135533630847931,
                        0.033117521554231644,
                        0.26084664463996887,
                        -0.12637250125408173,
                        -0.211264505982399,
                        -0.36368539929389954,
                        0.19137361645698547,
                        -0.22989758849143982,
                        0.19613024592399597,
                        0.11958130449056625,
                        0.16521966457366943,
                        -0.0803656280040741,
                        0.1853688657283783,
                        -0.027900071814656258,
                        0.20441383123397827,
                        -0.15918827056884766,
                        -0.3054884374141693,
                        0.21433337032794952,
                        0.3318631947040558,
                        -0.021598972380161285,
                        -0.04677994176745415,
                        -0.17349687218666077,
                        0.13920055329799652,
                        0.35995784401893616,
                        0.04824027791619301,
                        -0.22608187794685364,
                        0.2127450853586197,
                        0.18586046993732452
                    ],
                    [
                        0.06444765627384186,
                        0.10261788219213486,
                        0.15749913454055786,
                        -0.10541670024394989,
                        -0.17545728385448456,
                        -0.14785729348659515,
                        0.16285575926303864,
                        -0.07224100828170776,
                        -0.2900694012641907,
                        0.35362112522125244,
                        -0.16187812387943268,
                        -0.14050251245498657,
                        -0.007638008799403906,
                        0.23845389485359192,
                        0.12322930991649628,
                        -0.19063206017017365,
                        -0.19920864701271057,
                        -0.1609371155500412,
                        0.37647923827171326,
                        0.15024714171886444,
                        0.19921551644802094,
                        -0.08265161514282227,
                        0.23158034682273865,
                        0.2078939527273178,
                        -0.11031526327133179,
                        -0.22472399473190308,
                        0.10094211250543594,
                        0.017594335600733757,
                        -0.1579168736934662,
                        -0.00799477007240057,
                        -0.020751122385263443,
                        0.018543677404522896
                    ],
                    [
                        0.11799345165491104,
                        0.010984014719724655,
                        -0.03173348307609558,
                        0.22902412712574005,
                        0.017481181770563126,
                        0.07894206792116165,
                        -0.35151728987693787,
                        0.003073889994993806,
                        -0.23267941176891327,
                        0.22817650437355042,
                        -0.09491834044456482,
                        0.11654391139745712,
                        -0.21061359345912933,
                        0.23693807423114777,
                        0.11125124990940094,
                        0.045409779995679855,
                        -0.2060771882534027,
                        -0.393570214509964,
                        0.03037707507610321,
                        0.07854938507080078,
                        0.028329040855169296,
                        -0.1615639179944992,
                        0.06467212736606598,
                        -0.007996270433068275,
                        0.276601642370224,
                        0.11774731427431107,
                        -0.14875410497188568,
                        -0.16583983600139618,
                        0.1635933220386505,
                        0.0890333503484726,
                        0.10131900012493134,
                        -0.09449080377817154
                    ],
                    [
                        0.17705237865447998,
                        -0.1429997831583023,
                        0.23040392994880676,
                        -0.15808925032615662,
                        -0.17069335281848907,
                        0.22869642078876495,
                        0.1714317351579666,
                        -0.10395915806293488,
                        0.3319912850856781,
                        -0.08131273090839386,
                        -0.11366824060678482,
                        0.017436454072594643,
                        -0.06402387470006943,
                        0.2294684201478958,
                        0.09457755833864212,
                        -0.10039713978767395,
                        -0.12059175968170166,
                        -0.27377820014953613,
                        0.032962776720523834,
                        0.2669086456298828,
                        0.06211649999022484,
                        0.07124932110309601,
                        -0.16533783078193665,
                        -0.19396542012691498,
                        0.04950771853327751,
                        0.03962432220578194,
                        0.004567442927509546,
                        -0.0637177899479866,
                        0.0332643985748291,
                        -0.27096253633499146,
                        0.282778263092041,
                        -0.23909124732017517
                    ],
                    [
                        -0.2904846966266632,
                        -0.018901171162724495,
                        0.11560074985027313,
                        0.06770577281713486,
                        0.17086748778820038,
                        0.13560932874679565,
                        -0.015505309216678143,
                        0.002959632547572255,
                        0.14284801483154297,
                        0.08304518461227417,
                        0.3671703636646271,
                        -0.10386297106742859,
                        -0.27683159708976746,
                        -0.07048201560974121,
                        0.11766184866428375,
                        -0.16079777479171753,
                        0.062111031264066696,
                        -0.018169693648815155,
                        -0.23223420977592468,
                        -0.05086878687143326,
                        0.045188792049884796,
                        0.13578668236732483,
                        0.0721910297870636,
                        -0.2563752233982086,
                        -0.07777869701385498,
                        0.25829562544822693,
                        0.13262592256069183,
                        -0.27556782960891724,
                        -0.04935981705784798,
                        0.017464052885770798,
                        -0.2665962278842926,
                        -0.30075258016586304
                    ],
                    [
                        -0.08855738490819931,
                        -0.022044869139790535,
                        -0.160576730966568,
                        -0.2933492362499237,
                        -0.21765077114105225,
                        -0.16364318132400513,
                        -0.39195457100868225,
                        0.10383802652359009,
                        0.10644275695085526,
                        -0.3079151511192322,
                        0.08524543046951294,
                        0.12720723450183868,
                        -0.3854491412639618,
                        0.08867507427930832,
                        0.043468575924634933,
                        -0.10656656324863434,
                        0.136994868516922,
                        -0.03940518945455551,
                        -0.345958411693573,
                        0.1581382155418396,
                        0.35489538311958313,
                        -0.32754066586494446,
                        -0.09341566264629364,
                        0.3698548972606659,
                        0.002333130920305848,
                        -0.33631086349487305,
                        -0.13192260265350342,
                        0.08038613200187683,
                        0.033578917384147644,
                        0.39554914832115173,
                        -0.13119879364967346,
                        0.07524424046278
                    ],
                    [
                        -0.17412492632865906,
                        -0.2570909857749939,
                        0.06801549345254898,
                        0.17777690291404724,
                        -0.08713618665933609,
                        -0.21390266716480255,
                        0.30821144580841064,
                        0.21423301100730896,
                        0.07082196325063705,
                        -0.2031150907278061,
                        -0.10328636318445206,
                        0.10060092061758041,
                        -0.15393665432929993,
                        0.10684897750616074,
                        0.28258490562438965,
                        0.17913229763507843,
                        -0.21261107921600342,
                        0.13386479020118713,
                        0.386796236038208,
                        0.18690933287143707,
                        -0.1394885927438736,
                        -0.36393845081329346,
                        0.27468445897102356,
                        0.02157558500766754,
                        0.018775830045342445,
                        0.14706334471702576,
                        -0.015414336696267128,
                        0.14037789404392242,
                        -0.08435314893722534,
                        -0.011017135344445705,
                        0.021538035944104195,
                        -0.043753113597631454
                    ],
                    [
                        -0.14194022119045258,
                        0.0029608525801450014,
                        0.10930607467889786,
                        -0.004734403919428587,
                        -0.34618523716926575,
                        -0.09638557583093643,
                        -0.355867475271225,
                        0.1281154602766037,
                        -0.2714942991733551,
                        -0.04923732951283455,
                        0.1540413200855255,
                        -0.23825182020664215,
                        0.25513824820518494,
                        0.17634131014347076,
                        0.20724312961101532,
                        0.09138617664575577,
                        0.15911579132080078,
                        -0.008766540326178074,
                        0.08291884511709213,
                        0.28045108914375305,
                        -0.3875834345817566,
                        -0.06883229315280914,
                        0.16697561740875244,
                        -0.33353906869888306,
                        0.2595859169960022,
                        0.04049457237124443,
                        -0.2134033739566803,
                        -0.26330041885375977,
                        0.04925023019313812,
                        -0.1945646107196808,
                        -0.20980709791183472,
                        0.13975800573825836
                    ],
                    [
                        -0.15872244536876678,
                        -0.17165601253509521,
                        0.16523873805999756,
                        0.03397690877318382,
                        0.11875700205564499,
                        -0.023488003760576248,
                        -0.18220467865467072,
                        -0.2956062853336334,
                        -0.08591896295547485,
                        0.020313285291194916,
                        -0.1569669544696808,
                        0.07749219983816147,
                        0.3948169946670532,
                        -0.10333190858364105,
                        -0.14875195920467377,
                        0.19981279969215393,
                        0.009043091908097267,
                        0.10884745419025421,
                        0.03208751231431961,
                        -0.1103854775428772,
                        0.40097591280937195,
                        -0.16490307450294495,
                        -0.08811263740062714,
                        0.172502800822258,
                        0.3974014222621918,
                        -0.18376052379608154,
                        -0.1211368665099144,
                        -0.04729340597987175,
                        0.20740363001823425,
                        0.11433561146259308,
                        0.3727646768093109,
                        -0.32259291410446167
                    ],
                    [
                        0.01781369000673294,
                        0.3762145936489105,
                        -0.19418802857398987,
                        0.16624657809734344,
                        0.12026908993721008,
                        -0.1929939240217209,
                        0.06342101097106934,
                        0.009502706117928028,
                        0.289659708738327,
                        -0.01599537953734398,
                        0.017142558470368385,
                        -0.28640878200531006,
                        0.011084457859396935,
                        0.19212386012077332,
                        -0.01464783400297165,
                        -0.2303176373243332,
                        -0.10921628773212433,
                        0.05689442530274391,
                        0.13805343210697174,
                        -0.27895045280456543,
                        0.07021389901638031,
                        0.22277523577213287,
                        -0.11864909529685974,
                        -0.3760899007320404,
                        0.010098527185618877,
                        -0.17163629829883575,
                        -0.12764425575733185,
                        -0.0491454191505909,
                        -0.2748820185661316,
                        -0.11971691995859146,
                        0.0392499715089798,
                        0.3583217263221741
                    ],
                    [
                        -0.052880484610795975,
                        0.10258716344833374,
                        0.3487197756767273,
                        -0.09506619721651077,
                        -0.11553821712732315,
                        0.20009030401706696,
                        0.1875772476196289,
                        -0.1708456128835678,
                        0.008290186524391174,
                        -0.17212574183940887,
                        0.05488273501396179,
                        -0.39716199040412903,
                        -0.026330886408686638,
                        0.2919369637966156,
                        0.3739379942417145,
                        0.11145143955945969,
                        -0.13670620322227478,
                        0.11535116285085678,
                        0.02356720343232155,
                        0.15109920501708984,
                        0.09649492055177689,
                        0.09893698245286942,
                        0.3763973116874695,
                        0.2323468178510666,
                        -0.12469355762004852,
                        0.0019318379927426577,
                        0.20146127045154572,
                        -0.16146567463874817,
                        0.12100445479154587,
                        0.30519965291023254,
                        0.14625181257724762,
                        0.11513909697532654
                    ],
                    [
                        0.15980248153209686,
                        -0.05460960417985916,
                        0.16366615891456604,
                        -0.11119697988033295,
                        -0.04979603737592697,
                        0.27808281779289246,
                        0.08679629862308502,
                        -0.31914594769477844,
                        0.07958266139030457,
                        0.20578767359256744,
                        0.0039832862094044685,
                        -0.04999658092856407,
                        0.13182030618190765,
                        -0.15268485248088837,
                        -0.2743336856365204,
                        -0.062294118106365204,
                        0.1552545130252838,
                        0.03573216497898102,
                        0.32407262921333313,
                        -0.0014662223402410746,
                        0.03303544223308563,
                        -0.036659546196460724,
                        0.15054906904697418,
                        -0.02951403148472309,
                        -0.2850874662399292,
                        0.23589181900024414,
                        -0.31900617480278015,
                        -0.1653573215007782,
                        0.36252930760383606,
                        -0.119564950466156,
                        -0.17770391702651978,
                        0.031245334073901176
                    ],
                    [
                        -0.07987301051616669,
                        -0.020168161019682884,
                        -0.3307721018791199,
                        -0.12188916653394699,
                        0.1517256647348404,
                        0.3098177909851074,
                        -0.03568064793944359,
                        0.24740777909755707,
                        -0.18701329827308655,
                        -0.13729672133922577,
                        0.3474702537059784,
                        -0.13704144954681396,
                        0.1621328443288803,
                        -0.2028147280216217,
                        0.3030041456222534,
                        0.0032856010366231203,
                        -0.004086421336978674,
                        0.09187792241573334,
                        0.18216975033283234,
                        -0.16625286638736725,
                        -0.017285838723182678,
                        -0.18997347354888916,
                        -0.12662529945373535,
                        0.07770194113254547,
                        0.17734122276306152,
                        0.09989426285028458,
                        -0.20179396867752075,
                        0.1725776195526123,
                        0.1441088318824768,
                        0.3038702607154846,
                        -0.035609059035778046,
                        0.024081293493509293
                    ],
                    [
                        0.20874623954296112,
                        -0.0043886457569897175,
                        0.2250388264656067,
                        -0.12299344688653946,
                        0.11140074580907822,
                        0.22006888687610626,
                        -0.19792884588241577,
                        -0.3265867531299591,
                        -0.1743541806936264,
                        -0.08202631026506424,
                        0.14552368223667145,
                        0.12981653213500977,
                        0.017638815566897392,
                        0.20093552768230438,
                        -0.37204474210739136,
                        -0.020894937217235565,
                        -0.14560472965240479,
                        0.0408758781850338,
                        -0.25851571559906006,
                        -0.36626696586608887,
                        0.0069082509726285934,
                        0.017838872969150543,
                        0.05192709341645241,
                        0.14226892590522766,
                        -0.01178236398845911,
                        0.1475372016429901,
                        -0.32024306058883667,
                        -0.19801029562950134,
                        0.14304393529891968,
                        0.109523706138134,
                        0.05190195143222809,
                        0.12265880405902863
                    ],
                    [
                        0.08084643632173538,
                        0.22082632780075073,
                        -0.3933742046356201,
                        0.11488500237464905,
                        0.3504691421985626,
                        0.2603052854537964,
                        0.26321038603782654,
                        0.06171520799398422,
                        -0.2344033271074295,
                        -0.06494085490703583,
                        -0.1790143996477127,
                        -0.1968446969985962,
                        -0.1615017205476761,
                        0.13022002577781677,
                        -0.17699138820171356,
                        0.17513388395309448,
                        0.08737282454967499,
                        -0.04155796393752098,
                        0.2971510589122772,
                        -0.2839290201663971,
                        -0.16425234079360962,
                        -0.15743397176265717,
                        0.22821997106075287,
                        -0.10164956748485565,
                        0.02041095495223999,
                        0.22920264303684235,
                        -0.2621065080165863,
                        -0.3044930100440979,
                        0.1206536591053009,
                        -0.021601084619760513,
                        0.23455560207366943,
                        -0.15533731877803802
                    ],
                    [
                        0.15020020306110382,
                        0.14501406252384186,
                        0.1122891828417778,
                        -0.22414417564868927,
                        0.29340237379074097,
                        -0.16910378634929657,
                        0.2360970377922058,
                        0.2847951352596283,
                        -0.2941672205924988,
                        0.0907447412610054,
                        -0.08560054749250412,
                        0.26516830921173096,
                        0.14285479485988617,
                        -0.1710168719291687,
                        -0.1601690798997879,
                        -0.31317979097366333,
                        -0.04124513640999794,
                        0.0689711719751358,
                        0.20008420944213867,
                        0.0860200822353363,
                        -0.10281956195831299,
                        -0.0671977698802948,
                        -0.0699957013130188,
                        -0.23481199145317078,
                        0.32512718439102173,
                        -0.05870143696665764,
                        -0.0804184302687645,
                        0.19660505652427673,
                        -0.03481753170490265,
                        -0.0035897172056138515,
                        0.19914132356643677,
                        0.03583379089832306
                    ],
                    [
                        0.10928383469581604,
                        -0.3292788863182068,
                        -0.009390225633978844,
                        0.16408881545066833,
                        0.04285603016614914,
                        -0.22937414050102234,
                        -0.28089332580566406,
                        -0.10809147357940674,
                        -0.17236463725566864,
                        -0.14086104929447174,
                        -0.044134944677352905,
                        -0.0283720213919878,
                        -0.12477932870388031,
                        -0.010575943626463413,
                        0.16844967007637024,
                        0.08804190158843994,
                        -0.04122751206159592,
                        0.20153258740901947,
                        -0.007140366360545158,
                        0.05887645483016968,
                        -0.16056716442108154,
                        0.3502265512943268,
                        -0.11932791769504547,
                        -0.28831446170806885,
                        -0.04831313714385033,
                        0.28849101066589355,
                        -0.10894457995891571,
                        0.17998483777046204,
                        0.08665589988231659,
                        -0.1603240668773651,
                        -0.1981288492679596,
                        -0.16628189384937286
                    ],
                    [
                        -0.1429244577884674,
                        0.00954953022301197,
                        0.0583636537194252,
                        0.02214302122592926,
                        -0.08816328644752502,
                        -0.2919221520423889,
                        0.04967315495014191,
                        0.13263274729251862,
                        0.07974264025688171,
                        0.23369041085243225,
                        0.2991563379764557,
                        0.03127878159284592,
                        -0.02601623721420765,
                        0.3813784718513489,
                        0.1700751781463623,
                        0.3531091809272766,
                        0.23126937448978424,
                        -0.07895845174789429,
                        -0.3119796812534332,
                        -0.35634690523147583,
                        -0.1774410903453827,
                        -0.056421175599098206,
                        0.03886006772518158,
                        -0.1272432655096054,
                        0.2607303857803345,
                        -0.06660580635070801,
                        0.028804603964090347,
                        0.28417423367500305,
                        -0.09310480207204819,
                        -0.03984411060810089,
                        -0.08649185299873352,
                        0.007482732180505991
                    ],
                    [
                        0.08235485106706619,
                        0.2822558879852295,
                        -0.22275471687316895,
                        0.05217430740594864,
                        -0.12340264767408371,
                        -0.2928675711154938,
                        0.02616763487458229,
                        0.059287916868925095,
                        0.003248383989557624,
                        -0.16977183520793915,
                        -0.038083817809820175,
                        0.03800352290272713,
                        -0.1582011878490448,
                        0.10277395695447922,
                        0.08884750306606293,
                        -0.05091623216867447,
                        -0.2124093621969223,
                        -0.06286830455064774,
                        0.21956154704093933,
                        -0.0037859585136175156,
                        -0.1004914939403534,
                        0.13130372762680054,
                        0.203616663813591,
                        -0.010034178383648396,
                        0.01924411952495575,
                        0.11696305871009827,
                        0.22316071391105652,
                        0.10074964165687561,
                        0.04203910753130913,
                        -0.1193147599697113,
                        -0.09052665531635284,
                        -0.24779336154460907
                    ],
                    [
                        -0.011731262318789959,
                        0.22128525376319885,
                        -0.12235473841428757,
                        0.06016417220234871,
                        0.1661786288022995,
                        -0.114352747797966,
                        0.026987791061401367,
                        0.14217287302017212,
                        -0.0547502264380455,
                        0.05370274931192398,
                        0.11426453292369843,
                        -0.05620475113391876,
                        -0.12296482920646667,
                        0.08238563686609268,
                        0.09298471361398697,
                        0.08982647955417633,
                        -0.0009607369429431856,
                        -0.15344880521297455,
                        -0.015679381787776947,
                        -0.056597840040922165,
                        0.056774988770484924,
                        0.3005184233188629,
                        0.08757946640253067,
                        0.11818476766347885,
                        0.09647416323423386,
                        -0.1508747935295105,
                        0.07920488715171814,
                        -0.084207683801651,
                        0.1938839703798294,
                        0.11377101391553879,
                        -0.16419996321201324,
                        -0.2317149043083191
                    ],
                    [
                        -0.11426061391830444,
                        -0.3587194085121155,
                        0.06904133409261703,
                        -0.2526983916759491,
                        0.17642830312252045,
                        0.30192330479621887,
                        -0.1297360360622406,
                        -0.012575221247971058,
                        0.1568080186843872,
                        0.283363938331604,
                        -0.05695091560482979,
                        -0.10115853697061539,
                        -0.14815114438533783,
                        -0.02955138497054577,
                        -0.19753941893577576,
                        -0.16636717319488525,
                        0.028307104483246803,
                        -0.06815318018198013,
                        -0.0968681201338768,
                        0.32074999809265137,
                        0.05701284110546112,
                        0.10370209068059921,
                        0.02278255857527256,
                        0.020646778866648674,
                        -0.12287647277116776,
                        -0.09756558388471603,
                        0.13079534471035004,
                        0.046586956828832626,
                        0.23140360414981842,
                        0.08772282302379608,
                        -0.04221462830901146,
                        -0.16228729486465454
                    ],
                    [
                        0.058853499591350555,
                        -0.17158056795597076,
                        0.027624793350696564,
                        0.2733067572116852,
                        0.2609553933143616,
                        0.29944732785224915,
                        -0.2765046954154968,
                        -0.05588382109999657,
                        -0.061416253447532654,
                        0.03771771118044853,
                        -0.16391310095787048,
                        -0.0004658641992136836,
                        0.12608636915683746,
                        0.2013878971338272,
                        0.03969293460249901,
                        -0.07760534435510635,
                        -0.08499156683683395,
                        0.12905021011829376,
                        0.00676010362803936,
                        -0.17517095804214478,
                        0.27555668354034424,
                        -0.16768427193164825,
                        0.07007908076047897,
                        -0.17559067904949188,
                        -0.25333869457244873,
                        0.11578259617090225,
                        0.11614756286144257,
                        0.0780491754412651,
                        0.11804205179214478,
                        0.04292680695652962,
                        0.007221471518278122,
                        -0.022028636187314987
                    ],
                    [
                        0.11496143043041229,
                        -0.16051997244358063,
                        -0.18253517150878906,
                        0.0017951579065993428,
                        0.12855960428714752,
                        -0.02873208373785019,
                        0.2846825122833252,
                        -0.14083990454673767,
                        0.07237645983695984,
                        -0.2268659472465515,
                        0.26617419719696045,
                        -0.19736625254154205,
                        0.0662471204996109,
                        0.006776457652449608,
                        -0.03259913623332977,
                        -0.03138461336493492,
                        -0.0602775402367115,
                        -0.32259634137153625,
                        0.124048613011837,
                        -0.19502755999565125,
                        -0.21051695942878723,
                        0.18253763020038605,
                        0.12317943572998047,
                        -0.11104331165552139,
                        -0.18048645555973053,
                        -0.17210307717323303,
                        -0.04706259444355965,
                        -0.10939564555883408,
                        -0.1636100560426712,
                        -0.16852104663848877,
                        0.04041949287056923,
                        -0.26963287591934204
                    ],
                    [
                        -0.25728073716163635,
                        0.14105822145938873,
                        0.015892812982201576,
                        -0.09516896307468414,
                        0.031421348452568054,
                        0.10071030259132385,
                        0.044510647654533386,
                        -0.030945898965001106,
                        -0.058066949248313904,
                        -0.029791004955768585,
                        -0.34335917234420776,
                        0.1079884022474289,
                        0.03653186559677124,
                        -0.21160544455051422,
                        0.043615106493234634,
                        0.05433310568332672,
                        -0.0631401464343071,
                        0.057415418326854706,
                        0.23347271978855133,
                        -0.33182448148727417,
                        0.20197941362857819,
                        -0.06210684776306152,
                        -0.09958252310752869,
                        0.19689252972602844,
                        -0.30893075466156006,
                        0.1388821005821228,
                        0.16377128660678864,
                        -0.39552903175354004,
                        0.3215743601322174,
                        0.2245112657546997,
                        0.2098606824874878,
                        0.07406608015298843
                    ],
                    [
                        0.26350635290145874,
                        0.1339905560016632,
                        -0.023073535412549973,
                        -0.3510531783103943,
                        0.24226228892803192,
                        0.2160589098930359,
                        -0.01574675366282463,
                        -0.15588654577732086,
                        -0.054472360759973526,
                        -0.06507865339517593,
                        -0.03394683077931404,
                        0.08284362405538559,
                        -0.2739911675453186,
                        0.05225900933146477,
                        0.29890790581703186,
                        0.20326705276966095,
                        -0.17788977921009064,
                        -0.1943993717432022,
                        0.16237713396549225,
                        0.23283939063549042,
                        0.059795912355184555,
                        -0.03152478486299515,
                        -0.03895074501633644,
                        0.11582878977060318,
                        0.25572076439857483,
                        -0.05914726480841637,
                        -0.09279868006706238,
                        0.02433265559375286,
                        0.13638198375701904,
                        0.21006743609905243,
                        0.04588494449853897,
                        -0.02660755254328251
                    ],
                    [
                        0.30566200613975525,
                        0.07465726137161255,
                        0.33002638816833496,
                        0.013575105927884579,
                        -0.1112719252705574,
                        0.10161623358726501,
                        -0.0683644488453865,
                        -0.29619100689888,
                        0.08551059663295746,
                        -0.16039332747459412,
                        0.020126720890402794,
                        0.07632014155387878,
                        0.1300504058599472,
                        0.3063696324825287,
                        -0.1375495046377182,
                        0.26855918765068054,
                        -0.17123627662658691,
                        0.051186129450798035,
                        0.23233066499233246,
                        -0.042909640818834305,
                        0.11246588826179504,
                        0.05326436087489128,
                        0.05623485893011093,
                        0.08688005059957504,
                        -0.08111198246479034,
                        0.1845523864030838,
                        -0.15131688117980957,
                        0.23185762763023376,
                        -0.2751172184944153,
                        0.12244705110788345,
                        -0.2152256816625595,
                        0.11947819590568542
                    ],
                    [
                        0.04017360880970955,
                        -0.07339920848608017,
                        -0.3276076316833496,
                        0.2606242001056671,
                        -0.21398331224918365,
                        -0.15355779230594635,
                        -0.09814272820949554,
                        0.050072766840457916,
                        -0.22039924561977386,
                        0.006909509655088186,
                        0.2079491913318634,
                        -0.18423299491405487,
                        -0.1497102975845337,
                        -0.23694497346878052,
                        -0.02226181887090206,
                        -0.19792696833610535,
                        0.06598899513483047,
                        0.33630645275115967,
                        0.014513252303004265,
                        -0.019664084538817406,
                        0.21149073541164398,
                        0.14488118886947632,
                        0.02177952602505684,
                        -0.03145599737763405,
                        -0.0008679355960339308,
                        0.0017613520612940192,
                        0.0928344652056694,
                        -0.09962299466133118,
                        -0.19116593897342682,
                        0.29249289631843567,
                        0.24124112725257874,
                        0.06829114258289337
                    ],
                    [
                        -0.013460432179272175,
                        0.11168570816516876,
                        -0.32268521189689636,
                        0.10551083087921143,
                        0.20901736617088318,
                        0.28222352266311646,
                        0.38391995429992676,
                        0.13165153563022614,
                        0.08547884970903397,
                        -0.19825950264930725,
                        -0.028170589357614517,
                        -0.030616391450166702,
                        0.16043944656848907,
                        -0.09481481462717056,
                        0.24619880318641663,
                        -0.00454111909493804,
                        -0.23173172771930695,
                        -0.05108471214771271,
                        -0.17097727954387665,
                        0.1718326359987259,
                        -0.011938324198126793,
                        0.09963825345039368,
                        -0.10152557492256165,
                        0.08472784608602524,
                        -0.38435232639312744,
                        0.2128812074661255,
                        0.2795369625091553,
                        -0.1669769436120987,
                        0.0838291123509407,
                        0.2628073990345001,
                        0.0661618784070015,
                        -0.1987905204296112
                    ],
                    [
                        0.18201306462287903,
                        -0.10596100986003876,
                        0.09123054146766663,
                        0.07123680412769318,
                        0.11647146195173264,
                        0.1665990948677063,
                        0.3022271394729614,
                        0.00952401477843523,
                        -0.2826579809188843,
                        0.01418064720928669,
                        0.1944359838962555,
                        -0.10838542133569717,
                        0.15108008682727814,
                        -0.04509320110082626,
                        0.02400526963174343,
                        -0.16499759256839752,
                        0.17903724312782288,
                        0.15694935619831085,
                        -0.1614050716161728,
                        -0.05624620243906975,
                        0.26476600766181946,
                        -0.2813454866409302,
                        0.09395505487918854,
                        0.30473676323890686,
                        -0.08109251409769058,
                        -0.06397219747304916,
                        -0.06854123622179031,
                        -0.18103760480880737,
                        0.16361485421657562,
                        0.17605312168598175,
                        -0.19875720143318176,
                        -0.08431141078472137
                    ],
                    [
                        -0.06353307515382767,
                        0.2953612208366394,
                        0.10220310837030411,
                        0.023954562842845917,
                        0.07525715231895447,
                        -0.19856999814510345,
                        0.14820633828639984,
                        -0.14141511917114258,
                        -0.20551982522010803,
                        0.14944179356098175,
                        -0.32381007075309753,
                        0.09231765568256378,
                        0.24911576509475708,
                        -0.04964037239551544,
                        0.11834350973367691,
                        -0.01863587461411953,
                        -0.2245074361562729,
                        -0.20712833106517792,
                        -0.019907670095562935,
                        0.022474875673651695,
                        -0.10242058336734772,
                        -0.042158082127571106,
                        0.1348249465227127,
                        -0.19257310032844543,
                        0.27186718583106995,
                        -0.03058304265141487,
                        0.11608412861824036,
                        -0.09104117006063461,
                        -0.29123634099960327,
                        -0.0839899554848671,
                        0.27449682354927063,
                        0.22187693417072296
                    ],
                    [
                        -0.10432310402393341,
                        -0.024922259151935577,
                        -0.25411513447761536,
                        0.18438085913658142,
                        0.05912075191736221,
                        0.15174566209316254,
                        0.2015581876039505,
                        -0.09939111024141312,
                        -0.262554407119751,
                        0.13696525990962982,
                        -0.38107141852378845,
                        -0.23787571489810944,
                        0.2941983640193939,
                        -0.27258163690567017,
                        0.09375804662704468,
                        0.11725211143493652,
                        0.39274781942367554,
                        -0.39167770743370056,
                        0.19332408905029297,
                        -0.003847528714686632,
                        -0.01829405315220356,
                        0.017889151349663734,
                        -0.18495310842990875,
                        -0.15691794455051422,
                        -0.27044928073883057,
                        -0.11936864256858826,
                        -0.013677745126187801,
                        0.1540905088186264,
                        0.038250699639320374,
                        -0.019347036257386208,
                        -0.31275615096092224,
                        -0.254661500453949
                    ],
                    [
                        -0.295465350151062,
                        0.30802375078201294,
                        0.1640271097421646,
                        -0.38775038719177246,
                        0.3860010504722595,
                        0.0698901116847992,
                        -0.2685924768447876,
                        0.01901724375784397,
                        0.11138846725225449,
                        0.24437659978866577,
                        -0.0046392478980124,
                        -0.11185113340616226,
                        0.11586029082536697,
                        0.0028349561616778374,
                        0.15167036652565002,
                        0.0939549058675766,
                        0.10432378202676773,
                        0.12955477833747864,
                        -0.1359146684408188,
                        -0.05506093427538872,
                        -0.09270044416189194,
                        -0.26323848962783813,
                        -0.056846119463443756,
                        0.07921209931373596,
                        0.3055345416069031,
                        -0.06466086953878403,
                        0.09263525903224945,
                        0.05306464806199074,
                        -0.13712163269519806,
                        -0.013912609778344631,
                        0.19259314239025116,
                        0.104022316634655
                    ],
                    [
                        -0.06565498560667038,
                        -0.09051091969013214,
                        0.028801534324884415,
                        -0.15745338797569275,
                        -0.3269469738006592,
                        -0.08584177494049072,
                        -0.06556935608386993,
                        -0.09869027137756348,
                        -0.01132718101143837,
                        -0.07029778510332108,
                        0.10407386720180511,
                        0.15950071811676025,
                        0.0063049825839698315,
                        0.17695243656635284,
                        0.20945733785629272,
                        -0.10488249361515045,
                        0.18665851652622223,
                        -0.03440196439623833,
                        0.22225934267044067,
                        0.14697778224945068,
                        0.1819290965795517,
                        0.20032458007335663,
                        -0.31286486983299255,
                        -0.055873844772577286,
                        0.06319686770439148,
                        0.13444681465625763,
                        0.04963257163763046,
                        -0.07047197967767715,
                        0.31838399171829224,
                        -0.0642380565404892,
                        0.11350759118795395,
                        0.20928895473480225
                    ],
                    [
                        0.023150142282247543,
                        -0.076284259557724,
                        -0.2095024287700653,
                        -0.0497572161257267,
                        -0.05105291306972504,
                        -0.07666600495576859,
                        0.03896632418036461,
                        -0.08889240771532059,
                        -0.2100302129983902,
                        0.0784129947423935,
                        0.37868732213974,
                        0.137215718626976,
                        0.3611854314804077,
                        -0.3047628402709961,
                        -0.11091075837612152,
                        -0.07165375351905823,
                        -0.09417485445737839,
                        0.1514580398797989,
                        0.04076007008552551,
                        0.062412939965724945,
                        -0.08847226947546005,
                        -0.26237019896507263,
                        -0.0021904597524553537,
                        0.19505931437015533,
                        0.30111992359161377,
                        -0.2598029375076294,
                        -0.20343202352523804,
                        0.032479431480169296,
                        0.0728430226445198,
                        -0.160945862531662,
                        -0.19135119020938873,
                        -0.20272959768772125
                    ],
                    [
                        0.3244146406650543,
                        -0.34103184938430786,
                        -0.11494526267051697,
                        0.1137986034154892,
                        0.05135717615485191,
                        0.26921987533569336,
                        -0.07607091963291168,
                        -0.1791944056749344,
                        0.18024766445159912,
                        -0.034857869148254395,
                        -0.29019811749458313,
                        0.09637215733528137,
                        0.01897081919014454,
                        0.18275731801986694,
                        -0.39789777994155884,
                        0.16127018630504608,
                        -0.11638075113296509,
                        0.20602688193321228,
                        -0.0018809963949024677,
                        0.09395521134138107,
                        0.13400772213935852,
                        -0.049510665237903595,
                        -0.17678500711917877,
                        0.3432069420814514,
                        0.0062245954759418964,
                        0.1618434488773346,
                        0.2005062699317932,
                        -0.25240275263786316,
                        -0.09467197209596634,
                        -0.21026752889156342,
                        -0.15912877023220062,
                        -0.3532714545726776
                    ],
                    [
                        0.10704843699932098,
                        0.15155409276485443,
                        0.20168578624725342,
                        -0.015391350723803043,
                        -0.14789463579654694,
                        -0.19797348976135254,
                        0.05608586221933365,
                        0.2392469197511673,
                        -0.1686936914920807,
                        -0.18023857474327087,
                        0.05694562941789627,
                        0.38750049471855164,
                        -0.12948550283908844,
                        -0.14923955500125885,
                        0.19077610969543457,
                        -0.07781832665205002,
                        0.06506237387657166,
                        -0.0016697380924597383,
                        -0.3663303256034851,
                        -0.2236257791519165,
                        -0.3077731132507324,
                        0.2928147614002228,
                        0.00948663242161274,
                        -0.352122038602829,
                        -0.10535625368356705,
                        0.34232911467552185,
                        -0.3267337679862976,
                        0.033164262771606445,
                        -0.04794880375266075,
                        -0.1600329726934433,
                        0.03848453238606453,
                        -0.08596885949373245
                    ],
                    [
                        -0.20978909730911255,
                        0.16638457775115967,
                        -0.14281918108463287,
                        -0.33264198899269104,
                        0.23802542686462402,
                        0.3077988624572754,
                        0.008818169124424458,
                        0.3061896860599518,
                        -0.1881955862045288,
                        0.14458267390727997,
                        -0.10653567314147949,
                        -0.28934890031814575,
                        -0.2474653273820877,
                        -0.1499575674533844,
                        -0.0401279479265213,
                        -0.3334188461303711,
                        -0.1792033612728119,
                        0.15143562853336334,
                        -0.01993267424404621,
                        0.38597914576530457,
                        -0.19703851640224457,
                        -0.27700287103652954,
                        -0.06285226345062256,
                        0.18198205530643463,
                        0.20748689770698547,
                        -0.2346859574317932,
                        0.3794916868209839,
                        0.008534891530871391,
                        -0.12240712344646454,
                        0.1306174099445343,
                        0.25202032923698425,
                        -0.017887169495224953
                    ],
                    [
                        -0.36126476526260376,
                        0.02510211616754532,
                        -0.1764608919620514,
                        0.27968576550483704,
                        0.18488822877407074,
                        -0.09053263068199158,
                        -0.007966298609972,
                        0.1743861734867096,
                        -0.12312426418066025,
                        0.16726498305797577,
                        0.16908548772335052,
                        -0.03025505691766739,
                        -0.171735942363739,
                        -0.04862001910805702,
                        -0.04938783496618271,
                        0.1859210580587387,
                        -0.09920314699411392,
                        0.02582550048828125,
                        0.09724380075931549,
                        0.0625685378909111,
                        -0.05230623856186867,
                        -0.20886118710041046,
                        0.3307207524776459,
                        -0.22697417438030243,
                        -0.016268879175186157,
                        -0.07764145731925964,
                        -0.23101255297660828,
                        -0.011345965787768364,
                        -0.04644837602972984,
                        0.12994831800460815,
                        -0.10144103318452835,
                        0.14587798714637756
                    ],
                    [
                        -0.13502240180969238,
                        -0.3306613862514496,
                        0.22994206845760345,
                        0.3727041780948639,
                        0.05538089945912361,
                        -0.32408276200294495,
                        -0.030880434438586235,
                        0.29716867208480835,
                        -0.009948949329555035,
                        0.11086992174386978,
                        0.17184437811374664,
                        0.13019202649593353,
                        -0.03471260890364647,
                        0.02004031464457512,
                        -0.052951980382204056,
                        0.16011258959770203,
                        0.06718293577432632,
                        -0.2974248230457306,
                        0.029314830899238586,
                        0.03743106871843338,
                        0.13896363973617554,
                        0.10431419312953949,
                        -0.17686957120895386,
                        0.2596406042575836,
                        0.07224085181951523,
                        -0.025935668498277664,
                        -0.2980770468711853,
                        0.17823372781276703,
                        0.011486751027405262,
                        -0.11649863421916962,
                        -0.058679863810539246,
                        0.13676752150058746
                    ],
                    [
                        -0.036336880177259445,
                        -0.15587083995342255,
                        0.01850329339504242,
                        0.10376852750778198,
                        -0.02187955193221569,
                        0.3887796401977539,
                        -0.05561989173293114,
                        -0.030807500705122948,
                        -0.05490360036492348,
                        0.27026018500328064,
                        0.07415003329515457,
                        0.07026546448469162,
                        -0.16832473874092102,
                        0.16267403960227966,
                        -0.29834869503974915,
                        -0.19799411296844482,
                        -0.05195806175470352,
                        0.3440421223640442,
                        -0.11396266520023346,
                        -0.19633343815803528,
                        -0.23123620450496674,
                        -0.014532655477523804,
                        0.1388614922761917,
                        -0.05019404739141464,
                        -0.12281378358602524,
                        0.21537423133850098,
                        -0.10451478511095047,
                        -0.03033614531159401,
                        -0.09266426414251328,
                        -3.753231430891901e-05,
                        0.3288140892982483,
                        -0.2140042930841446
                    ],
                    [
                        -0.05456632003188133,
                        -0.02722886949777603,
                        0.06895028799772263,
                        -0.18215171992778778,
                        -0.06891654431819916,
                        0.08332712948322296,
                        -0.030689671635627747,
                        -0.06425925344228745,
                        0.24922354519367218,
                        -0.052728090435266495,
                        -0.08013911545276642,
                        -0.09708914160728455,
                        -0.13620594143867493,
                        -0.4001237452030182,
                        0.12395729124546051,
                        0.27456149458885193,
                        0.1923191249370575,
                        -0.2548719644546509,
                        0.3702559471130371,
                        -0.0606439970433712,
                        -0.055413052439689636,
                        -0.1832740604877472,
                        -0.23601408302783966,
                        0.005261979065835476,
                        -0.19452838599681854,
                        -0.10723364353179932,
                        -0.2697286605834961,
                        0.17658072710037231,
                        -0.2600260376930237,
                        -0.15750260651111603,
                        -0.17676471173763275,
                        0.2179635614156723
                    ],
                    [
                        -0.08722152560949326,
                        0.07817008346319199,
                        0.11099941283464432,
                        -0.092360720038414,
                        0.18090860545635223,
                        -0.006935267709195614,
                        -0.16584499180316925,
                        -0.20384441316127777,
                        0.08790670335292816,
                        -0.14151044189929962,
                        0.09546691924333572,
                        -0.15969473123550415,
                        -0.08860190957784653,
                        -0.2176813930273056,
                        0.19179485738277435,
                        0.038788847625255585,
                        0.15415146946907043,
                        0.22245964407920837,
                        -0.04775061458349228,
                        -0.32214775681495667,
                        0.24296104907989502,
                        -0.19517597556114197,
                        0.007794663775712252,
                        0.23312006890773773,
                        -0.10672520101070404,
                        -0.17379209399223328,
                        0.3712005019187927,
                        0.20731694996356964,
                        0.29000377655029297,
                        -0.12887907028198242,
                        0.1905525177717209,
                        0.23170867562294006
                    ],
                    [
                        0.1943521648645401,
                        0.17181769013404846,
                        -0.16146068274974823,
                        0.12723706662654877,
                        0.011960181407630444,
                        0.07369933277368546,
                        -0.36161479353904724,
                        -0.2899974286556244,
                        -0.10774177312850952,
                        -0.11454755812883377,
                        0.16565170884132385,
                        -0.060039374977350235,
                        -0.11772827804088593,
                        0.3691053092479706,
                        0.051147766411304474,
                        0.23569898307323456,
                        -0.09827322512865067,
                        -0.3482728898525238,
                        -0.32794061303138733,
                        0.04447862133383751,
                        0.19737567007541656,
                        -0.36707499623298645,
                        -0.1485213339328766,
                        0.2638911306858063,
                        -0.10251647233963013,
                        -0.04845788702368736,
                        0.24259412288665771,
                        -0.07843662053346634,
                        -0.1206781193614006,
                        0.24790942668914795,
                        0.32123345136642456,
                        0.028078222647309303
                    ],
                    [
                        -0.24479642510414124,
                        -0.08035540580749512,
                        -0.3175504505634308,
                        0.13373257219791412,
                        0.27407941222190857,
                        0.19339147210121155,
                        0.29543209075927734,
                        0.2252841591835022,
                        -0.14235830307006836,
                        -0.14907602965831757,
                        0.12135215103626251,
                        -0.2097945213317871,
                        0.3982146084308624,
                        -0.1643196940422058,
                        0.042807336896657944,
                        -0.0010844708885997534,
                        0.3088929057121277,
                        -0.16920353472232819,
                        -0.2272602766752243,
                        0.24838688969612122,
                        -0.1723611205816269,
                        0.08232506364583969,
                        0.13215045630931854,
                        -0.1843276023864746,
                        0.09019507467746735,
                        0.15099525451660156,
                        0.09257902204990387,
                        -0.30203089118003845,
                        -0.15066534280776978,
                        0.1304810792207718,
                        -0.2267620712518692,
                        -0.06601421535015106
                    ],
                    [
                        -0.17923307418823242,
                        -0.00024174281861633062,
                        -0.279497891664505,
                        -0.2790367603302002,
                        -0.14316044747829437,
                        0.2001051902770996,
                        0.20784926414489746,
                        0.01030722726136446,
                        -0.0037307441234588623,
                        0.04868272319436073,
                        0.1636405885219574,
                        0.09451882541179657,
                        0.07746348530054092,
                        -0.07109320163726807,
                        0.02399531938135624,
                        -0.18823660910129547,
                        0.005743686575442553,
                        0.13109427690505981,
                        0.026659144088625908,
                        -0.24466605484485626,
                        0.08183979988098145,
                        0.3405613899230957,
                        0.30008089542388916,
                        0.13199123740196228,
                        0.12419044971466064,
                        0.04661530628800392,
                        -0.21854446828365326,
                        0.213276669383049,
                        -0.06811404228210449,
                        -0.20418667793273926,
                        0.1879817694425583,
                        0.009279334917664528
                    ],
                    [
                        0.02425651252269745,
                        0.03274032101035118,
                        -0.1874665468931198,
                        -0.19581028819084167,
                        -0.12798479199409485,
                        -0.2802404463291168,
                        -0.24124771356582642,
                        0.24674470722675323,
                        -0.1406903862953186,
                        -0.3479750454425812,
                        0.22376278042793274,
                        -0.15831692516803741,
                        0.24736951291561127,
                        0.16710735857486725,
                        0.09927120059728622,
                        0.047296516597270966,
                        -0.029928121715784073,
                        -0.14028166234493256,
                        -0.2975919246673584,
                        0.2818697392940521,
                        0.25497815012931824,
                        0.15195633471012115,
                        -0.054980844259262085,
                        -0.30672937631607056,
                        -0.2779705822467804,
                        0.012488623149693012,
                        0.1492229402065277,
                        0.15585485100746155,
                        0.3545477092266083,
                        0.01736094057559967,
                        -0.25624343752861023,
                        0.18983542919158936
                    ],
                    [
                        0.013443907722830772,
                        0.11099179834127426,
                        0.1397298276424408,
                        0.0282331220805645,
                        -0.11178462207317352,
                        -0.017186028882861137,
                        -0.1127687469124794,
                        0.2987983524799347,
                        0.09029760211706161,
                        -0.36020419001579285,
